(360, 40)
314361,582906,652306,782524,-314896,-28427,389508,-13250,177917,-577982,-642375,756934,-724713,-302628,325865,-137454,-251275,697002,-580664,-122517,53257,547657,544339,559107,-248245,143552,-277953,232290,285204,-404994,309754,-273990,-82316,-27952,-162062,-326424,47372,30835,85150,-89320,-122971,-111105,-55626,44191,33787,60708,-20874,-59155,14032,10382,40035,-105485,-79077,50635,-32287,93793,107317,-87039,-2393,-55011,-116710,45071,32508,-99723,-113534,-87794,2834,45762,-17755,-94524,-64608,-30595,57726,-32290,115205,142265,22437,-63127,-55429,131756,-51103,126436,-22460,114183,56955,97503,105908,107634,-46567,-92129,67312,14085,104093,85933,-33610,-128253,61240,62304,65380,576,-7866,117552,-97120,88750,86034,15158,-45909,101647,-2269,95102,112538,67264,29821,67237,-31664,5447,-47020,84417,-28321,-75681,39663,71920,66492,-74758,11534,85736,-23782,4221,54963,-50574,96039,129285,-29643,121477,49782,-103951,77805,-75657,114424,-80246,26150,-92490,77275,124485,-74496,-106733,115521,-40691,76745,3349,-51252,-18145,-17567,-12592,134559,68223,-90772,-62476,-101765,51739,7556,95201,70228,9579,-67181,15685,-113164,97013,3901,-44236,-46002,110477,-6504,-16223,-53477,89925,-4016,-8657,70926,-39662,-59135,-61755,-61513,64911,77536,-118399,56922,-109467,-6700,-97602,-60753,-134722,-141070,-100230,-1660,-16333,77038,-83949,89839,-19476,69623,-70556,-78310,-16360,-48983,-137572,26713,29830,25236,20483,43260,19921,-130672,-102793,-26516,51398,-84696,-116400,68009,121327,53541,-7753,-86971,52742,53812,80480,103266,101293,-2567,-27318,83778,46480,-41152,75573,119520,-846,-72762,-39777,-59422,105255,104322,-70598,70506,95958,29559,-11995,-66020,-77503,-41166,113402,25651,-8106,-40423,-94996,38670,27038,-89888,-116679,95972,-5502,-78604,52472,83839,-12232,49735,-73368,-105503,-93702,-24773,15246,-74666,-4249,14830,-35072,-7519,88318,51279,78398,79742,-90948,19298,-33115,-70276,84822,-29399,-94530,-70231,-8293,81411,-137422,43637,11685,-38912,69286,-90578,-7422,82520,53756,102578,16713,105036,99443,-64591,86488,13085,-63969,61241,16557,-24311,-112990,-69991,-25150,-42140,19348,52786,3317,65481,-127068,56003,-56752,-91005,5111,-15880,-87581,26684,-94037,-124404,-127358,-104373,-29025,-84007,-84664,-85688,74717,-55710,-105578,-76472,70443,72765,-12225,-63060,72632,-132418,88862,55403,63607,15387,28847,-15620,-40925,102731,-10128,-122316,-124493,-15362,8014,-20745,52167,-130550,97131
-886692,-263477,253734,208204,-176910,-343526,-202255,-14148,-136989,91918,267234,-68791,28887,-653785,-867144,-743036,-68538,-9939,59877,401255,179080,-107139,26553,-249314,349992,480579,128526,194483,210680,-200450,-94869,-213925,79891,501935,671186,225959,58072,71209,-34799,102189,109805,-90885,-11664,85566,50464,-83621,-70064,-58008,-39441,-40145,-18655,-30188,17393,15346,-87917,-73520,-33391,73505,-90816,-77822,38069,72305,-108692,114275,-83220,-73637,23256,24528,-55264,18724,-106085,94135,-74588,121228,28730,22481,88557,24785,14224,37587,-38139,-36927,26745,-78147,-61704,-58200,-48962,41402,-94504,118827,-53274,-53910,-59978,-3927,-4702,-42813,-74029,44914,-43657,-47035,990,-23314,-62823,42152,-99443,19530,-23398,54153,-53559,74670,-98337,108831,44803,30290,-94353,-97877,-123261,49029,-69932,-60646,-73761,22371,-94326,-78471,116782,-103365,-121426,107667,-78474,-41012,-59394,-116303,-11281,-78839,-84839,8277,-42948,-8467,68329,94178,26776,68085,-21139,-38445,73237,119143,-86747,-14674,72710,4871,120956,-89460,1618,-49919,-65213,18302,-3870,73759,94851,118269,97282,26436,-83107,-896,78677,71849,-86354,-95394,-96253,86456,6753,-82031,14404,93856,67795,-95423,-53543,-138447,115104,76417,-82885,129902,-54366,-53505,-99723,-22126,-103185,93822,54296,78267,-3994,-94194,44654,-62288,-36692,94136,-87845,43808,-8314,9151,91271,-77467,38605,-77159,6618,46332,-30406,89588,25962,69611,-70397,76662,13282,-76047,78644,115673,35687,117573,110437,-79903,94171,-37318,-30741,76341,-98871,1799,-95142,122211,-78386,74979,113316,-18470,-73030,120592,-76091,53531,87815,71315,-80959,-90252,-44463,-25423,36149,-34225,-15848,-70536,-94789,77488,-64943,109864,8144,-101016,130114,107060,-97912,86499,-36929,-3963,-46366,41593,103122,-96447,-24944,-58604,62062,-55976,27229,-96327,-66622,120788,-106136,98366,-58122,-86418,-55362,-83750,33044,-33507,-110227,105234,41597,-104716,3109,28194,125050,-14480,-84888,-92801,55392,72387,-111842,-63223,52248,66395,-107891,33323,17183,33479,-35037,3857,-92481,-1591,54429,-92221,12664,83810,13643,-61753,76916,-22378,-82842,-10451,102243,-35078,75126,95997,-25061,-99102,51016,-98939,6872,-63904,99375,-80246,-41010,13585,84483,-50487,-55735,-31589,-104748,116021,-77922,110592,-91568,-46458,-71222,55474,75216,-106369,-98938,80949,88078,121854,87456,-10144,11903,-715,-25131,85746,-18654,83896,-14978,106586,-99591,-92588,-31099,-7384,80252,22627
180261,38036,27585,-3360,36181,-68773,-8571,-53621,21359,53807,-71823,15433,50502,11377,43035,-33792,89619,-30591,-48996,64809,-45641,104253,44438,18315,95768,-79219,42986,-186231,-151393,-48827,97409,143479,-61286,120080,66228,16029,36562,72012,-10682,-10752,72109,47637,65290,12052,133534,38384,-79729,-76459,96344,58665,94924,102967,110714,16317,-82999,62584,-3013,-20325,3718,-23784,-46320,11283,112621,43055,160270,-41404,124891,139782,-46207,-65415,-2315,121084,52210,-42685,102661,-26340,156055,130995,156740,-76165,63511,-72440,-37953,61058,31265,-69002,17586,87118,108377,-117951,-46389,-62212,-67770,69845,-34904,-109024,-92861,101475,-32788,137978,-60507,-107480,192729,7380,-87123,-61580,-5856,58803,32424,-142113,-127206,22350,-96272,-39722,56577,44820,-115886,-132847,-11574,20161,55852,-67208,-11852,-141226,-70274,-106148,-57445,-113250,103123,-97884,-53591,5993,-19440,-138396,-53960,77929,-42153,-95720,-71448,-44072,-148006,41669,-14488,75505,156399,-10023,59301,39619,205756,-1487,10417,124263,-39422,90383,-69052,-63557,97134,24555,-97606,-3924,8642,76301,-21670,52743,15036,-63900,113010,-84237,-57890,5572,161047,150202,46995,51262,-83933,-7044,119568,-86721,-56631,14643,-36453,100289,4586,143635,-19932,77996,-52778,135066,-18348,147066,100989,58651,3473,-11744,-73823,67839,-76825,66434,-62229,48669,30050,23145,-31657,-59378,-1893,37679,-19647,-73774,100643,43266,8215,-63001,116977,-2088,84603,-52104,37143,86941,-32271,-104659,-121528,-74591,2967,100100,-3493,-48162,-84634,98702,55541,-52656,20973,-14481,81437,54785,-50024,-39471,-102555,-125105,-93663,62522,-16532,-7212,-23827,-116466,-101072,-122857,-76582,78810,-33941,-25042,-98238,-49587,18113,-63610,87134,-40959,28611,144617,101550,37918,26074,-48601,63385,-50671,174465,-14266,-32475,24360,65400,-19905,29839,159956,89123,77458,17315,86961,-8066,-26390,25604,-61871,65505,136270,56506,-39182,153818,27977,52948,-52810,134680,-16610,57938,-79777,20668,-39162,61530,-90767,103064,52976,-34128,-20832,56641,-9963,-326,34177,83413,63510,95695,96393,-113435,-77864,58889,35192,-35422,-39945,7470,93894,28330,-83422,-95182,135688,-86726,10584,61963,70324,123274,-32812,-32360,86527,-83116,-53454,-73129,103095,124949,-22434,91530,-78586,122599,7090,-31145,156433,-22351,158789,79411,-73821,-74676,-31985,149346,122776,20608,-63510,-8097,62269,-11037,5833,149754,153382,18970,81701,-62834,27034
522055,-100911,-312026,-350331,4994,621402,-52174,330435,-151836,33731,572753,1048511,159234,141714,284176,-86759,300616,885785,-218592,63807,353787,-298441,-543337,950286,-504703,-296721,66106,337185,20371,308084,-226425,266118,263899,-169729,-161210,-652061,107580,-103418,-7689,-88056,99291,92278,3876,-49455,-106580,-12476,-117550,114615,-6609,-74499,-118037,58088,-71915,11550,87351,2928,107148,-70728,-95439,-666,105828,-62030,47194,-3011,-76766,-63944,4884,114882,-80955,-36900,-60916,-41480,43082,91187,58108,-41644,-54898,-52710,2641,44744,-12957,67734,94836,-51331,50145,-27439,80506,-39110,-6142,62621,-25687,113561,-60456,-11144,84973,148674,-3340,13916,17931,-119787,-87842,-27715,81244,91213,-15013,256,59558,43472,-50983,23346,-79246,3927,55944,990,93560,120864,-11592,106525,-92247,-71655,-93616,-56353,-110200,9691,-48120,-16232,49426,10681,-114362,124945,82159,56635,-29832,55255,-108784,-126279,-72137,-52108,23833,108446,-16776,72087,92544,90780,-15553,-33998,-119535,-6541,15977,-15556,54613,-130118,-36334,24981,1384,-124628,-82429,73538,-116016,-52515,111839,-105826,47596,25088,27098,80773,-3409,55408,-37448,-2205,-82991,-33691,-126628,15491,8738,-76654,81387,10874,80587,-67063,43572,102627,-6583,-52692,-109259,-1665,-87425,76167,-28074,-45132,-116467,89668,6649,118462,29339,-50643,-85361,107571,-109240,108541,43321,-104200,-57074,118380,106066,-24607,-82028,-106977,-61431,69379,22113,116726,-43214,81578,-63697,-83374,-74245,-112506,-36753,-116641,100534,-77107,-83213,-88671,6746,26362,8430,-102518,67527,-20799,78192,-28858,-25388,-33936,13773,-116050,-79585,-94570,-68519,-89637,-59584,-4750,80686,-58019,-114722,19916,-620,-43561,-112004,27631,50252,29476,29448,-31472,24937,86368,22529,114854,-78979,-54021,78240,99327,-22718,-89314,49876,-101704,11097,-65931,77507,83059,72710,99586,113177,32397,-62617,115046,-2119,-54146,-91705,-89512,77206,-112093,-47031,-82557,-4196,83549,-59980,-13548,-54343,-25112,-21079,-135063,44922,111548,27770,51132,66949,-60113,80660,16650,71326,3983,86070,-95248,81570,93396,36481,68729,-72887,59519,-67087,110310,15312,12244,109329,-102189,14990,93814,-36254,-108124,-118840,16948,23461,-84369,22435,-94363,-62559,27759,-4096,99549,-5802,3131,47877,55829,103395,96684,13153,117181,117956,-50981,54388,107337,20828,-72264,110619,105044,106468,-102403,117796,-53748,17247,39227,-13697,94052,75548,-37241,46006,-28246,-90294,72071
-25644,582634,624605,283057,33972,-432896,446425,-55115,-280598,-371989,54579,1030785,320839,29350,76743,-25268,137630,757452,516488,216869,783660,246189,-660284,-381776,5143,-264296,276605,539607,-50024,-128524,1026003,-47196,-308737,-611559,-667943,20922,-99314,-127237,-77150,-14290,-89348,-72879,-75172,-61089,22115,78901,98926,71289,80988,-78361,-32505,44197,-64276,-117303,-124388,-77640,65279,101648,86522,48916,-101489,72267,45906,-97062,-41113,85770,37844,104353,-66319,57447,-60292,44609,43602,-76503,-6537,63309,-57478,-68034,-21376,-68623,38935,72898,104054,-43052,113178,54423,-77403,-18801,-79812,40923,118501,30501,29678,27073,1199,25681,119273,72809,-132749,-81673,121934,56546,-8367,-65155,13237,11798,-47922,104334,46588,-54405,-8972,-95317,-36445,84948,97231,41530,113523,43937,-110095,-89985,25215,120653,-31654,-31195,114584,29356,16357,12692,-72229,-9304,81592,-41651,-49893,-32076,-42758,-13586,-5049,66725,-70369,30390,-5961,-29248,19052,38366,11685,-48435,-48519,-68324,-27062,-46399,9352,121819,76718,38398,-25217,-103901,22317,-55749,38463,-96664,-74600,-40106,8182,-14332,-519,126160,68307,71458,102784,22409,-98840,29866,-99526,31564,-74308,-1280,63331,39311,-13292,54451,-47573,-18706,-3419,6767,-35560,-7040,-119689,-32689,72460,-66664,-120361,76434,80999,-61024,-127270,-66316,-71840,-37019,99507,87971,-100536,-18289,-23787,59470,-31199,-28338,56149,-35382,-82356,91712,55099,62488,90737,-73695,-105385,13139,-108175,68395,26862,15228,-120404,22511,57378,-1194,55236,2526,-91789,17913,16175,6030,-13080,15214,94685,34057,6465,-143774,-139314,8912,67561,-113492,78203,-7849,-56006,-75790,-106871,-80984,-25703,-66666,19248,-9355,31718,-87425,-43970,33090,-68657,99872,-83697,94733,-61626,-22607,43389,17013,67075,94086,-72849,77494,18148,15149,65294,-35570,17657,63783,-99458,102829,16105,-40237,89581,110689,-21546,-78073,-109337,-25217,111493,-71996,-56533,-65758,-32844,93116,77888,76420,-81751,-115691,94141,47908,-128689,-56173,-16460,-110667,14764,-45431,34684,67269,69824,106561,-61783,-93977,26228,-36752,-54600,-71521,-93356,89329,56125,-77374,-125505,82656,108496,19967,-96206,15519,-118667,79335,-16976,99727,-103187,-57594,-71602,-109225,84784,-107806,16183,-93960,-115218,43315,-61244,-128706,-24157,78351,35915,-120345,40872,-89675,-92779,-90928,17778,-92266,-102389,-37410,-38641,-2580,-5169,77632,-3591,89507,84002,-124339,-126329,15523,-66191,-27158
-263780,-1084690,-912656,-749797,-438571,58254,69318,-20293,216750,298378,215454,-212867,-194349,-230905,-63252,-212849,12660,118573,7675,470671,265005,65899,294245,57014,232896,464247,162361,-11846,67028,-85319,321703,-408877,-539627,57943,210301,545518,-113513,-61759,-62456,60768,-34309,-15346,50951,46867,74126,113415,33232,63795,76031,55601,-55765,94895,35709,71620,4545,-6210,76757,-10134,83811,-56217,3985,109212,70611,-76948,22968,19425,-39592,-73033,14764,49983,-101102,12474,17054,-86936,11680,89131,77884,-90557,-47393,-6623,103211,9712,-66487,53114,13661,103358,127414,-106932,-54595,99215,-102960,-120706,-42614,-121361,69601,86709,27353,86265,39693,-139413,-137222,-104232,-91988,-101820,-34447,19107,-1223,87643,23680,-116604,-52294,-133166,100514,80965,101912,-36319,28644,-49881,-30334,12485,-62727,-109171,115574,-137215,-25453,58637,22956,-119030,-69439,46156,62532,-101056,96733,-78636,-23967,-13625,-95287,-67645,-86217,54054,21244,-98808,115943,-98084,-124655,23627,-63121,-118424,68420,83350,57448,-124323,-43875,-43979,-29271,-24180,-70821,88903,-119777,-7585,98824,104738,-89461,26771,69505,-110575,-1750,60540,115026,92910,118617,58264,-38637,-65530,17519,121268,30614,-6676,188,104332,-16357,119638,77800,8498,84489,15493,105928,4578,13791,-102564,-75650,121370,68915,-43081,119998,98822,-83090,67128,-99132,72434,53478,2271,52308,43363,72258,-38715,18833,-98113,-105949,-61548,60210,-50511,76177,-30280,-36885,95665,19160,16882,101580,-91646,27770,-107769,114608,95694,-109162,41316,-58689,-37077,-107733,38650,-129961,-60098,-89119,16681,-112537,-102903,-120984,70428,46625,-56962,107748,63017,-65993,-59830,121220,-68378,-65796,-34891,17498,-42996,81764,66478,51349,104312,39223,126130,-23643,-77749,45514,35556,-23513,-95762,-81976,35180,17600,-76775,98247,-22830,-21726,-101053,37372,-95400,65282,106002,38861,13498,-10166,57023,-63833,31267,-103868,-61910,95662,98537,-61785,63022,86454,87491,-76921,60237,59913,-134851,97335,35961,61896,-19125,-61286,-116431,95368,39621,-112414,-116546,-64460,-74718,-24581,-100594,2431,-55617,-37061,-19522,118326,576,38516,-82336,-122205,-50381,66989,-69601,88111,-96566,65806,-28359,85334,-81807,50189,639,-71606,83330,122100,52227,-66590,-92701,13357,98692,39575,-115021,64343,-18711,-93770,45896,-102081,125193,-52972,-46331,-71546,-94042,83150,-73567,51170,126861,79183,125617,-1696,-3949,64130,119394,33187,69761,-89442,68203
-781387,-39245,1039357,577963,-498859,-656798,-84570,-191251,-513135,28347,510555,341752,-350716,600150,96889,411777,620504,189502,-610270,441377,110349,150451,486181,612647,-111630,239897,-159123,-78481,749382,324318,-837376,52064,-147636,-250836,70897,-418195,84900,-48403,22663,62112,-67368,-67016,-42384,-6627,109717,-60122,73873,-115474,-58987,-1871,-113203,121933,25793,87345,-57819,11606,37647,-108529,-89643,7898,-115586,-106927,-41378,-21451,64562,-41027,-6036,101885,118607,-95361,-102565,-6291,-43235,113131,28104,-4079,-102516,49972,-120492,-86549,72131,-3512,192366,122048,26584,70081,-151575,16394,10657,21964,41028,-13114,-81219,8653,-28696,-36711,-67114,81078,23894,95446,145193,138627,99263,-33203,90612,-9164,111530,-4365,2899,35863,-53664,94634,89947,47473,-128480,-4359,-107346,-12904,-14422,104749,-41115,13222,55257,73396,81607,-76187,105325,-8922,101036,75263,-14235,52781,70873,47352,-9595,-15267,64045,105106,-79210,-23859,38028,-75457,13618,14842,-29727,38275,-10722,-17857,35201,-35071,67455,-64819,-37630,19410,-3631,47091,-56779,66146,69125,-56618,-32412,103463,35750,127045,116488,-116796,-9078,-69594,101601,73491,101711,-58451,-39133,-121220,111479,-33526,-5865,82181,-87375,-9142,6785,30791,-57015,64131,29446,-5841,-41720,6366,52956,91299,-89170,55120,44468,63190,-17052,-3410,55864,107121,9728,91803,81912,-110196,-54902,-28722,99551,28322,-54212,-36416,49260,121287,43150,74046,-88744,5663,-112634,-88361,921,-18516,34443,-18974,131999,23738,-103510,53003,-67109,-11904,-80384,46326,88447,-33815,20877,69108,-19085,131717,-82752,6334,-393,46616,-91113,131627,-97278,-75542,-31598,-13181,-24438,-62767,-106543,42213,121510,81752,-66972,-59812,92903,6556,-40604,3557,28383,55600,-41147,-45394,112697,-62571,-124715,119767,30363,75250,-36186,101307,21644,51825,46820,-88904,77828,8133,-21826,86953,51865,17598,83935,-91166,34689,-608,-121702,64117,-7627,-115035,5858,-105602,94497,87750,-112278,3588,-107842,32165,71418,-77633,125258,1460,-104102,92965,-33040,39109,-38861,60355,52950,94009,-32690,-88694,105325,24969,107958,73503,110553,-5577,-61955,-7794,51031,-40258,-111487,-40677,82315,5886,28227,36746,-8757,-52646,112327,64688,-103989,26709,-80911,73064,96938,12151,79271,36070,50757,86457,-41043,-7170,17023,-94232,56701,-61812,68704,-122047,92398,-66382,87040,52445,-110336,-66013,103288,-54879,-82659,49042,-36082,35124,-73083,37528
-152275,-168006,-771992,-797590,-128213,-190916,22829,672685,132575,29690,303392,621478,-366109,-27584,-221774,-253883,183386,663664,-1135787,363067,529676,224392,-231475,339055,99859,267537,538493,406437,565315,682949,171379,-87474,-276747,-205056,-6877,147356,-109308,2542,-55370,72595,205,-20878,81804,-70638,-118660,-16003,58383,5576,35576,-23542,-113337,-42681,47620,50810,94772,41367,-72404,53323,-4942,104589,-3316,7566,21910,47838,-88106,-45801,-44440,-114904,-92449,-87237,29398,52665,116219,48127,67932,49287,-69261,34127,-75528,105541,-127976,-24324,-10348,86889,57814,175251,110597,71716,130938,30324,114674,22354,93554,-22225,89890,-75683,-101494,126325,130196,-28952,82197,48286,-92167,-114035,-10629,-34912,61431,-41326,-50185,61152,-59416,74638,49854,-64589,-95046,60003,23404,-43356,5661,72382,9250,-76411,34996,41571,-112901,-60297,55770,-26279,102683,90039,-65967,-132376,21772,-56792,40220,-73527,105449,-114971,99553,73400,20887,116025,-89893,-31941,-38960,23787,23741,-3793,-118625,-127377,58983,-52350,-146478,-146772,-100344,-45802,58797,108623,74915,96677,123934,35404,102287,-33403,-58041,-70776,47538,64890,66401,108684,90221,-31711,-65761,40384,-89537,33727,-15097,101765,-114807,16840,-82533,14317,-51780,-1181,60822,-26433,-102801,102660,-80736,-88457,-123626,-6038,114764,-100851,113445,71743,109586,-15872,-89189,-78631,-41556,1164,-88978,79084,-52027,-7598,23389,76916,-69539,14360,-115243,53922,100632,-90211,68197,109352,15643,25331,43194,-70439,14012,-120416,57196,-34543,116921,-88001,-45378,69291,31846,-105855,43201,-99388,-105196,78921,103432,-30072,-53514,55325,-58905,92636,-72953,-86053,-91400,-87,20808,-78347,79685,75665,31804,45553,-71245,50484,67042,-30471,429,99284,-24148,-123300,-31194,-43476,-83709,54133,-46659,42398,56714,39151,57475,123758,-17257,-8170,3720,60313,-122598,82736,36900,-88658,-86417,1946,40680,-69070,-119806,92897,9149,37899,-27841,-58488,38835,-49337,8515,102380,59942,-75631,47092,-30586,34106,50601,64349,-14992,111731,53806,-131511,39114,42107,-11301,23938,68959,44110,-31549,87278,11878,9997,-76553,-75560,-110563,-31044,103041,112633,-78533,4128,7046,-4571,86532,106383,-127914,-22184,54884,-73156,-82786,53145,-45808,-125361,93086,92919,22919,68922,-4590,-38930,-12997,35766,69252,44899,-66806,-36446,20884,-89347,-55965,59996,-29037,-95993,-49714,95662,49361,72069,11261,101540,114280,-18799,-101795,65926,115076
-8985,-139566,4869,4311,5478,40129,126403,115927,-11106,65629,-22176,-73812,-89631,-54278,-8472,-17011,24223,102708,155749,-23629,119720,110661,-36739,164366,41675,29253,-71892,-19469,-77669,-37394,-36186,133301,29326,21652,-53091,-108341,67843,-26885,-55927,-162903,11287,7085,609,38147,-63556,-134589,-126576,-35640,-61657,-116733,-70340,-87699,48492,-10318,-63854,-96450,3409,-137992,-158595,-143573,-46925,-132322,-66393,-118588,61340,-17496,-109853,-80427,-19787,-109116,-14584,28915,33674,-87560,30326,94993,-35574,-90864,-129483,169627,87614,-15058,-327,65940,-92909,57573,142093,-82252,1183,-119454,-92542,-86006,6677,-60897,35233,76525,40542,-32012,-33071,-64507,-48413,111197,-102120,-117419,-29652,88928,-76445,87619,-23910,38202,83474,-61133,-79872,87770,-53038,28352,105101,-84614,-92951,-119721,116802,-519,4056,83813,102319,40845,-24621,20309,-41691,64183,2752,-39726,-702,43641,67421,87183,-2505,48370,-40855,119248,-157,-49993,100705,-45921,25125,-28073,3325,11013,-45892,88522,134745,88053,-16723,45883,45866,150467,31453,165184,-73194,-90600,-65381,-11473,-75094,-66096,74942,73095,82473,137097,37194,11839,-75496,8830,5635,-15198,-44473,66876,40415,-25006,-41445,-18665,-120398,-119087,31620,-54934,3333,-8492,-131437,37680,-109551,-91002,33360,11076,-134174,-140574,42000,34809,-29984,77173,-104024,1248,73934,-114100,28874,-80448,-99528,-64858,72145,-87313,28661,-85585,55671,7653,4162,-146068,58157,-9951,72168,-58735,-61870,-3886,8537,-24750,-40204,-105058,658,-128372,-81402,-65403,56132,-101625,-7094,84127,64076,-74228,-120046,-50226,-12327,95228,50927,-48065,73241,56802,-88349,-81719,-72357,39166,38164,57268,32597,60842,51381,-44934,27708,41613,-107584,61832,80547,19857,-141828,-29422,-34427,38763,27216,-40427,33594,61921,57121,-51456,44989,-97097,-109758,-17779,56902,-147245,-120348,-59042,-8353,-103250,29131,-22622,47994,-73249,-1393,-54181,44331,-82571,75396,-138990,-18442,-33965,-79739,-20567,-31547,-135179,-135608,78257,-110216,67837,-117339,-120189,17792,-81633,35235,72160,19538,-82527,-121744,80460,-85646,-124456,-891,60678,-58050,-55154,74365,-27070,-74798,-153614,-142053,75865,67390,-54257,-53953,73020,-144909,-130348,-111113,-31565,-74290,-75021,49887,12735,-77293,-154291,-2320,-146804,-100362,-75759,28239,-157013,-101560,7188,-83659,17096,-2593,46107,-93357,-143885,70843,-138269,-161484,-109552,28789,-151126,-152038,-155177,13780,-77637,-149713,66543
-1036984,86558,115348,252950,8948,-549080,-267667,-331890,-159519,-766302,-713059,-871706,370849,457283,-8400,-382032,49136,475382,-704565,-175942,232546,84985,70923,-115065,-168679,-127004,318480,756484,45279,113650,306526,-16078,-45904,-172006,-81361,182679,-108075,-48138,78500,-104324,-42276,44298,-113884,79094,39463,37016,-1449,78579,-42598,114157,-23979,-29535,-81598,-115290,-62646,-10628,-8904,25228,65180,-120880,-85607,41145,-9566,108044,-6067,-99397,-66046,-113707,53978,90915,29648,-508,73554,77404,-5724,52076,-132472,62643,67938,-77271,26764,-42239,30891,95542,-44432,-142592,59409,93460,47039,20178,44625,2474,34614,-26676,-31705,81623,1694,30305,-65387,61150,-154210,68658,-121523,-106404,-47,-73765,-51409,-76502,30361,-105004,-10837,-78167,-152478,-120382,-84213,13648,-21623,77778,69109,39380,-70227,-77871,106483,-107376,82915,-3828,47737,57536,-20368,-121221,-14302,-50836,-26905,-78440,119974,61463,56029,-54635,-8308,66842,-62866,-91064,58755,105709,-91181,14942,-96847,8910,38373,90861,100784,-96815,120109,-55771,-87544,72483,83816,39663,-81369,91653,2209,93908,71414,9112,16123,-77273,3999,59335,-73436,118918,136650,-70624,3764,-64037,-119826,85283,-26713,149029,-46882,-52341,92280,-69063,12359,-68380,185,5952,-118610,-5473,-74477,94474,-21509,96064,-8967,-125243,84478,-116484,1914,-51029,-4450,-73521,67200,-30590,116428,-104465,4121,-112811,-7141,33244,89502,-69788,60474,47400,94030,102816,60050,-5321,75561,31099,-95566,114371,60299,31807,77516,-54177,46832,-18225,109434,-5384,117178,88063,94663,-96831,133793,76453,-90211,-13507,-56235,52901,43595,-14031,96278,-30843,7631,61535,143282,-6588,15823,18306,-45651,86311,-40282,-42078,-23854,-15127,-57776,117076,59077,116381,-21873,41535,-25837,-92275,-25647,-121885,-17042,80572,47035,23232,-78922,-21047,26614,43138,-38979,88877,-117821,60474,-44568,118091,12706,-77706,82301,-80979,-54063,-114315,-36319,60752,87076,61972,-92999,47994,42923,-33737,32004,27173,64483,90290,-76693,87583,89122,-11807,47749,-70144,9831,-78824,104329,106385,-84047,-33606,99375,67219,135244,-99199,-67213,-121506,-31139,-43132,-32946,34229,95346,-10444,17335,-42759,78907,108536,-119423,1926,92677,49457,-55202,-53795,46395,44339,29229,-86106,-11089,-11766,-70735,-91484,-73703,17667,40252,-112413,-70070,66130,-67733,-96013,84582,65775,-13634,-77135,85144,115823,107272,92033,-42321,-116495,23430,-76986,61112,565
207813,-515818,-939529,-275009,-6925,-393665,53501,-130803,50770,-371249,-501599,-297637,22975,684695,539321,430519,209092,391678,-709777,-1332964,-415571,-12936,-199962,277211,177124,-332997,-166289,-124079,-368695,403526,951637,83466,345526,-154377,-266508,-125095,-46905,40796,46999,-119895,92415,51081,-67072,114098,90399,82427,85299,85846,80474,61896,35699,-2494,-64931,-93567,77199,74413,-80781,25109,34523,-29840,-47399,-97954,62866,87002,-73553,74963,-81010,-12194,99643,91073,-37001,43210,-3392,-133116,104590,-60839,42663,-8887,-31597,-41882,-19276,-78890,-122844,67695,-31636,-63496,105138,22516,-126533,-11575,-35042,46758,58133,38498,-58299,48492,20971,-124120,-119442,-130237,60355,21633,-66943,-43238,76540,95128,5810,132245,-68371,39817,48089,62342,-2255,-17783,-15117,-109762,3969,90271,23868,58024,27802,40017,61537,-46889,-66424,-37089,-53449,91274,24585,117585,120132,-38472,-57973,116764,-59693,-28451,50543,-99823,75454,68933,-27581,-7782,71054,71529,66168,136148,-80552,-10039,71998,-9449,39424,-8418,59934,-18153,79446,82859,8181,-534,-5873,91085,-104047,-92567,116560,84278,-79186,99360,-23333,-117358,73117,-125935,-51729,86842,-73656,-24701,-103,46737,28997,46162,3175,57323,66859,16008,-49305,-4531,31367,-26770,105628,-2670,-11224,103134,24699,42747,74444,-10757,-101190,35581,106097,-83916,2049,71479,-55326,36043,5423,-85458,-62317,56162,-100123,90777,117552,99612,16245,46701,108409,-74855,924,25021,-23993,84962,19178,26960,-109001,98975,-2366,-22004,-16012,18927,-35942,71906,80416,-71087,23834,81624,138952,24769,53509,87739,-79251,-141630,-130793,-43960,104173,-98716,48468,31378,50895,99938,-4180,17889,88624,75727,11197,-80732,-16772,-172,-98368,-87801,40228,19976,-106544,-62043,83799,-39489,-5824,32363,-61974,87394,106497,88513,110277,-109475,31507,92254,-85990,60699,32859,-62103,8781,-73540,-71075,-11561,46401,-38495,110848,29210,85181,-105800,-71020,97318,22451,-10311,-109412,-13635,-116712,-104632,-125077,50701,-73375,-91976,104312,98161,-69897,7197,18722,112572,-107246,-106969,-44626,-144106,-142141,15201,1061,-56148,81949,21227,-23554,21436,-126481,-124904,55940,-102993,75176,-99365,40663,51039,78791,112113,-56856,17293,-11856,48993,25571,44292,-60002,-67416,81319,-12178,118983,64741,115072,99913,-50217,14740,-17214,84152,-32020,-97769,-80349,-21528,48472,-117615,-16911,-14733,13148,-59984,78560,-60746,-11132,-45749,-121654,-58573
-11173,137239,-114214,-570985,-179274,250660,198157,-694813,-775400,-196815,-98107,-989795,-35996,-372876,-634275,61332,227382,559831,-435110,-316421,165514,-183884,97991,16718,190336,734851,-789,-67162,-125980,-83232,129880,121619,259883,275322,591118,67954,-83669,-82656,72762,55641,-121686,-39089,-90943,21988,-46204,-80818,-113627,74387,36454,-66187,75129,124804,-46197,-103679,-27420,-78990,-41922,24356,84586,-73232,94044,100586,104781,-47223,-13343,74221,96951,52053,-103661,-69163,-2990,-60184,-5694,-8730,-108918,121358,110180,82835,9896,-94382,-56009,-1189,3265,-62519,-97314,-140601,-8302,-62479,4262,54554,127624,-7385,9518,-89911,-5743,34081,-84658,4206,73113,-82372,98397,119909,20361,39301,-74389,-48598,-104430,-101816,41461,60298,49081,16818,-33352,-109255,-19573,92312,-117460,131874,-91648,-43882,-14912,22753,123574,106255,58530,-29509,15864,-50526,-97997,-99332,105250,-115665,19988,-52589,114125,-74689,43452,-4518,-111300,117664,47943,32341,-71726,76773,82708,36473,-46101,3378,16988,-29380,123037,-24541,46816,76201,54673,91076,-110758,112020,22596,101011,99064,74858,115370,-85177,80383,13488,100905,-81129,6173,-48252,-106080,66912,42852,-82325,-29390,7001,-33159,55472,-39304,-32078,54138,115952,-113155,77029,68221,113961,-28859,-31041,-44581,-117329,-127758,-62322,90023,24978,-10311,-99017,-111645,11224,-36498,-56417,-110792,-127252,71125,980,70520,-21985,-67565,-97001,-46290,-37047,36970,52819,-127601,77684,9257,-14191,124455,-70376,12010,-100380,-121579,-92487,-81473,24697,-107270,69658,-69507,-91700,31036,107665,-27892,-45417,25985,109530,33948,62463,60440,-50833,-124904,-99361,43225,103185,-20421,-86200,13705,-48481,-27039,61875,27975,-114639,54536,63918,-109155,-121561,-11024,99329,-48896,-937,95590,-45084,-45439,8765,-26043,65799,-85581,-61607,28297,-18155,52246,-127310,95002,110042,111354,72559,40713,-14542,-66208,99572,28440,-28201,-88464,59278,74299,-46305,-13680,-117948,90342,112108,-45022,-39518,-107073,-110657,-95618,-55581,54307,7487,-32299,73259,-81134,-130185,37474,90903,-18032,-98881,-77393,9201,50360,58227,73218,-23219,-112296,57708,41650,105240,90255,117868,34751,68892,22677,42853,-39498,-48395,-30517,-55280,32357,99077,-110873,41799,-41652,-75388,85162,53462,-68691,90454,12090,-48644,-47848,94389,-14611,-57533,-65174,36390,54134,114076,30434,-22956,11544,90891,-106767,83796,-93450,50160,-110594,62827,14166,112881,3727,74683,78489,53831
9002,4741,44371,-148025,91616,-10381,-52592,-81592,89593,26748,-42621,86518,8023,16524,-109414,-92745,-30848,-14117,93999,-71647,29734,16674,14246,99986,145236,134420,8153,64708,147446,-45255,-7625,106992,7532,10265,151573,66055,-70066,50586,-50303,110136,-28577,-86082,-11423,78943,-23183,-65761,-75246,14734,-74927,14619,-62279,85456,-75036,42891,-42626,3335,-3127,25254,-55490,57104,88811,16888,-13613,80693,-65383,120061,144516,142835,18813,-11112,79627,44128,-85947,55203,75095,74755,103577,85980,-63290,-11762,66192,34975,-13184,-83554,138599,120232,61636,-67768,-32598,-46272,54178,-57860,101412,105699,-7219,-81553,31690,58926,10449,-11309,-72052,-89445,-63378,-18994,-65943,47278,86900,74972,-50885,23812,57890,-92607,-74650,89802,30317,-15887,-149102,25396,-65945,-132831,91417,-96127,-22472,21295,79109,75402,-132211,89627,-65974,70152,102463,67369,-89699,49760,-114470,-79748,-127594,90730,-14120,5068,-28359,62788,-103036,-106520,-100995,84035,44852,-4905,64347,-65046,-69919,10012,100844,91356,26187,108438,33838,84846,-90723,44675,-64735,-63990,-104767,-26298,134250,114013,25737,29704,91746,-13373,134539,-85230,129823,99544,60014,103016,-20377,5863,111791,126773,29581,-28538,139400,-74678,67580,-40436,-30937,124970,66980,97152,50099,-99761,25128,-17534,-29918,75420,114275,13043,136559,-56026,76687,121729,-82738,74057,-13429,4757,-49692,26992,98100,126753,-21093,-97307,-89207,24726,11592,-25234,-19322,-18473,-62878,104029,28455,-27968,-72177,95171,123996,36921,-68832,48055,92602,-70608,48038,42783,-47360,29077,-73633,83152,25620,-74842,118693,-34867,129393,97088,-79520,-100748,-22998,41112,-24693,-38760,21302,-53966,28185,135248,-84497,-46963,64449,-92233,-65459,53374,61846,126333,-82545,-49221,129740,-81568,133214,17345,41493,-33627,-7531,113715,82124,-18291,-98510,12837,-29642,-6860,90687,138014,82887,-64165,24469,39745,-37345,-69321,49348,83176,57114,59618,117669,-65335,-102211,-78719,79844,-1849,8389,-31419,69924,-87621,-14104,48153,95006,95730,133816,-63239,32094,-14639,99156,-47288,136465,-63932,12971,16199,77183,-88032,-84938,33408,-16569,-15927,-75413,75899,87325,-34781,-11230,6640,-31260,-73321,16571,80561,-14322,-92481,-90937,26230,49600,35205,-10971,74558,47006,-94511,4531,68702,-90156,-19720,-59485,102320,14185,113828,-42766,126337,48405,118930,-15582,-54012,94243,108868,-61237,-63445,24765,29647,-98242,-28640
454071,-46026,797057,338806,538943,633465,-591735,-411082,527434,140700,237663,299894,-391857,83018,224850,-175552,16176,32588,-575506,803741,513949,936728,334362,783128,448543,440000,386014,310856,-95461,107039,170354,371240,328722,234503,262616,341308,-89711,-52570,70725,-32018,-16390,12914,23875,-122368,55727,2273,15991,63193,-131853,-93208,43892,-2505,-69695,198,12608,49391,-114229,-12787,-38570,-79432,-37993,47157,31973,87156,-96222,35761,-17596,-60116,13516,14032,12636,-45227,-110316,32806,98145,121820,26072,-124837,54852,-100105,-39293,-61674,138367,-31268,7489,26612,38587,76193,-13640,88624,33263,53690,-37175,124,46910,49534,-59512,98144,127681,-17592,119539,-25791,114328,-52330,-37435,-24179,44593,-6159,47331,101396,106338,-80055,36903,-73565,-81833,-66564,-100069,-90075,-5052,78392,-27729,96834,-1788,31702,88064,122186,-13803,-57307,-113557,81249,-40273,-16724,-2991,80707,-81631,-100765,115985,83022,-92301,103580,-14789,-93536,61875,-99726,82482,107038,-33553,-95134,39336,28681,15796,24083,36338,-6034,-681,-68600,37224,31824,-92738,-22069,-104442,9036,-30699,-34450,33773,-12038,83146,14921,-13323,-82055,22061,126076,118833,137525,7665,-98160,140288,-30638,-62692,48263,64325,-54437,31019,69727,-115828,-121698,-55757,-48914,51163,42002,-63851,-93262,5629,9770,-68696,-125649,-68665,9041,-50210,-97314,-104625,-24162,69000,-17254,-72647,-133103,15854,-75507,31737,76945,-12199,-45262,75476,15978,-130531,18200,36387,52660,-24160,-35321,3739,17772,-46159,-65392,50999,-448,65107,-85446,-39215,-105346,-17147,-64125,89010,11263,-55739,-129286,-48972,24354,-50405,-15899,-27841,41228,61689,-51371,79335,8717,-41343,-48912,82328,40814,-78984,93366,-69886,-123743,-90556,-123945,96002,86870,-18654,-4024,2606,40054,64602,103431,-47852,96077,-136823,104321,22177,-96281,78291,70258,-96934,79281,-42313,-10422,-92532,28176,-94206,71656,99178,-70353,-16226,30676,102136,64886,29821,-98408,-129610,-107374,60808,-112417,10371,104103,90129,-142114,-19799,-94780,24479,26182,-66727,-117985,-118513,47691,-508,-87247,-35996,68765,-36880,-25160,-14287,-101161,47140,-84378,89512,-5178,-23107,-108262,-74591,-25359,99175,110481,76657,13094,-79757,89481,73178,-2442,104010,104130,29609,52551,24293,-63656,-45719,28609,-11888,40621,-50990,-113030,39989,-82703,85274,-54832,67839,-30631,82688,79012,-93713,50356,52920,80038,-54149,25280,69016,-121957,50738,37836,5370,-81300
-323015,-75103,153016,73515,-109946,62770,-136874,172697,686615,468241,54830,-322891,753472,366712,234630,59591,452864,288372,357822,135144,-216629,-144406,-263930,-66932,580255,-329501,-95344,-193940,333813,53640,611557,-277447,-757085,-607413,-82233,111080,61643,-40597,18430,-107658,54383,-15842,-36446,60507,-74095,124127,102212,118822,-57635,106080,-61474,-74590,-90587,-45556,-74856,48120,-127406,-72559,53379,39289,-83554,81491,126545,1578,64314,22930,68837,-82801,109524,-28488,52088,-97096,49002,71466,-125102,-64846,60415,21582,107342,-109268,-67226,15982,-116724,-38481,116437,14364,-90168,92778,-104981,-48184,64778,74903,75071,4933,101587,-51138,113127,-24849,-107213,-3869,97590,-40779,18324,-161795,-70017,-87259,79730,21318,79424,-106354,118848,-118000,78920,-71609,-59974,94855,-111585,-11547,39066,-61648,-75429,-30423,-48047,11945,-53886,8986,30529,90689,34670,27086,-64639,29553,-41661,-71217,38203,-94951,-79577,-35877,93791,-84343,-72581,106051,21664,9487,17259,-84245,56090,-147298,67277,88723,-121675,19804,37605,-50437,19264,-130113,30714,-92054,111302,74792,16686,-27462,82266,-18139,-22757,39477,-94581,-88162,-129864,15691,16768,78089,-21981,-79955,-75867,-70846,-17883,-21584,-24409,51326,-70489,-62209,-74876,-22548,-20127,-82337,49745,-78503,-91915,-100074,2519,-49972,-3143,-4370,-95896,-8620,27529,-10833,52001,-91450,60620,57243,-74993,32601,-56073,101670,-39274,-106492,110967,-90336,-76964,74591,-27389,-5899,4284,-55475,56505,84547,-38785,-27932,62934,-26692,61649,107026,-56091,-21702,-90844,45775,-68348,-86697,-64855,86109,3096,82560,106047,-66859,-60924,55495,-82604,100762,-72359,39899,-72398,76453,-18765,-4171,-95736,39847,-66742,-6277,-64835,-38978,101871,122510,-41976,-51350,-12053,11714,-12226,11992,-89174,-35626,129691,-96050,13946,11143,-43791,101545,-104458,-51256,27199,-15577,-20529,-95909,-51536,105377,-100588,120341,85664,77233,-83076,60849,-2254,4243,17382,50285,96161,-60764,28885,-11915,112551,21749,-77070,125980,-71234,80292,18324,71266,-5911,-48824,-39453,-5398,-17652,19720,-34656,17719,-98811,-120306,-113852,60941,100188,-451,53135,-90578,-5728,34827,-65536,-5953,50475,-109949,26283,-98253,48923,116646,18639,-76631,42043,29103,-34116,72021,92173,120724,96041,-45695,-97318,-81273,28925,90776,-7060,-85831,-42590,-96580,109606,108205,124093,-104778,-62431,-112156,85585,18845,38757,32819,108374,47019,-8236,43041,127892,56987,30458,82289
-219111,-201061,-347875,-324922,-299730,-127939,-49970,-267429,-506980,-98537,368875,1006537,-1277700,76725,63867,425120,490051,-343223,511511,77049,95189,-298972,-604019,-838645,-353970,-189939,-306869,-236470,-289781,21809,-443817,-425635,171094,378054,436659,534985,51143,-50383,117657,114601,-33026,52772,-100986,-24361,37039,-3534,-84610,-103578,127723,70797,-81464,120039,-65693,70507,103253,-20262,106173,43121,57604,95637,-35603,-58957,110518,-2324,-85580,119476,-5154,84414,-37663,106770,128784,76402,-82182,-97383,89599,164531,78820,-34283,-137645,56472,-18106,97537,138199,25790,92971,52223,36529,-111671,137881,37040,-136140,106858,-115926,-19756,-80233,-4880,-86329,-41566,-1169,-65418,55149,153739,-12761,125121,83917,22740,-60779,-30010,28771,116516,-99452,129014,-48695,18707,96781,-59699,118157,82427,-35123,67475,-80303,73613,40797,70531,51128,20815,95539,-129204,95157,-8888,33993,44383,-134925,5018,-117555,-95948,83397,-27424,-3346,46076,-66250,-41871,-28471,-111717,46593,96226,151862,56468,124244,-130250,48027,39907,-95118,21894,-122057,96437,97983,73056,-119783,-73679,-90729,17127,-51811,1208,75692,-39437,12368,-132869,-13895,-120154,95107,16142,-80363,-107386,34998,-18148,31208,64508,-11523,48267,87763,-29238,33411,-13,74888,-33338,-78601,-91468,1183,59477,17095,-104099,-103066,64455,-41776,88411,45397,23287,-97131,133997,32345,11829,-62711,13279,63142,-66021,-45789,-36857,-87926,-10867,112956,28475,48420,-6650,62045,56276,-20289,-91763,-76359,-69200,76399,-47721,-26864,35232,65567,60034,-124120,-130048,52779,122385,105039,23815,-2504,-64328,-21230,-10384,59596,-77069,-17139,-14160,-60781,-1444,-120798,108920,12724,72336,50583,-93908,49515,-64218,-69723,-118038,-99208,76907,-54457,33813,-60381,-81075,25600,-25251,62415,118415,76320,-22672,6759,131935,147352,-35591,29430,29325,-36317,-44232,-44260,-66965,-45276,-29048,60876,67132,-78228,108425,32194,-86653,-27314,765,-19332,13178,47565,126808,46200,-41862,-47112,132680,58157,12064,-3713,56708,34975,-24411,97060,118173,-105604,96308,-100052,105717,-59219,86454,-94091,-66653,25274,103025,7507,-49761,-54898,103600,-72246,-78744,-63565,-33126,15508,-115675,41475,-25193,32702,-30490,-24942,-46986,1957,-31660,-86412,-23432,114690,93070,-98862,25919,-94330,69869,132109,97864,19808,120141,-59584,1177,2548,-66255,113595,24284,38650,53866,-31887,-104994,71506,-77513,55735,24520,42308,-96349,127226,-31252,23799,85900
14256,-19731,-117293,-91472,-50748,-39721,31480,-62562,5783,-109996,87969,-20801,-49903,-84272,-129604,-76931,127813,88381,-66357,-140694,56380,-39518,-96325,82853,85034,-14159,128253,86829,-42483,111710,14948,114275,81512,26684,129402,-62212,29820,67244,-23740,5389,136080,-30764,123149,-98105,118324,-34580,109035,115351,84888,64365,136046,-44101,84845,-56739,35831,-3959,73529,-59184,24039,-68256,-46981,20844,143719,-51521,-56888,58860,-34480,-67486,12581,-56437,-32694,-86142,-94823,-52086,110946,-44777,83327,101919,-85097,64030,17022,31210,-91097,135777,-66630,131875,79750,136705,-30352,115743,122385,-92316,-27814,48337,6653,-57247,-69406,99336,75151,125184,-37732,-97751,-30733,-50403,-53116,69265,114502,99763,-90132,5435,58854,36834,76029,-127392,73404,39043,81077,-59497,-102793,2131,-74318,-7851,-139294,-89843,86093,1894,87359,-123834,-105670,-15409,-75882,58465,-133685,94780,-18747,16056,49254,88441,6508,37145,37008,-25125,-21412,46221,-73280,42965,50052,127286,-13735,57096,-94149,-94632,-60424,73717,-81704,54671,116,102341,-88960,106696,-56189,-62505,20164,-75093,104139,114314,27455,3401,-29808,-72227,79281,38804,13070,63848,28441,-23227,-38283,112504,-25056,93358,86153,50896,-90410,-26909,-3620,124477,83686,31748,26565,-34481,26423,47027,-3762,57550,-894,-14702,-56479,-70140,-58992,-78856,20927,-9585,18236,-48677,-48374,-62406,149039,-68777,19493,134996,13854,-59463,141289,-6427,127856,135170,-26982,107845,99780,108101,106710,-20821,49613,-30234,-29961,-36380,38991,89449,-58720,115091,11744,109476,101457,-45597,114533,-105612,-87729,-64834,115517,84108,142254,-92356,-16931,14074,119385,-72593,92586,-75588,-47408,-76718,54522,-13205,23690,110933,31945,77067,123350,-50904,99941,-81854,8237,39452,24159,73655,68733,72724,-240,92624,57274,28548,-95918,110106,62317,143883,-68821,115464,136323,-78598,34103,-63926,142028,64137,-9908,56520,-93315,-89708,49995,-74096,29523,91097,97036,121133,110037,121320,49722,77087,71944,-40008,-101840,-52817,33769,-92782,-33536,-97336,51735,113059,-12531,-45945,-46951,-64446,-49092,102174,25679,72408,-48042,-16240,19125,117066,-9987,98476,-24148,-70072,34483,-34646,14605,76111,-59089,-65208,-34124,-19461,7572,-72636,-29161,56172,-87794,-17272,47551,113784,57095,-72352,89586,34213,-16973,2010,32551,-32896,-91986,-14874,-83733,49976,6633,-29483,34407,85797,146406,143651,-16699,-34057,53859,46844
446274,184105,190258,-67053,281514,72398,151606,-279489,-524700,20978,315453,-117649,101727,848898,522166,736556,740890,287997,-369523,138609,191133,-482926,-656736,-220337,-88417,-100396,-53055,-402154,-534763,47969,-346758,-80751,420688,549600,317088,89868,-12049,-75432,108737,-13853,-55737,118841,-101043,62416,-8932,-21893,31633,-37317,68290,-110483,65212,112664,-40472,-25739,-26182,-21441,-75306,-118907,-51228,7679,-11410,-32631,-92614,-82254,-73742,-103756,-105382,25852,-114325,48842,-94411,-1204,-67202,-48672,130078,-2685,111350,-68298,67581,-13000,67182,-73223,-75824,108270,50711,-88626,75455,25326,32778,-55684,111880,50687,-57173,-86544,33878,-68802,-111189,-29825,-8061,-97783,19704,-7098,-17600,-10838,-91810,59839,-31904,15555,38967,-75686,-46916,-9893,164264,89749,-31470,-85910,57705,-53052,-43470,105793,-79744,-45336,110856,-28766,-66634,-9515,-759,-50709,102397,115514,41403,72168,90484,91594,-53264,-2598,-87569,-25087,31115,34166,-19709,-17866,-61785,-26996,-18133,136497,-14179,53583,-49080,43064,-109485,58776,-42183,19921,-34183,53549,-96022,25715,-10916,-88776,-114281,-60833,-66426,97876,75054,49288,-79557,65544,76301,19040,59382,-86342,-4949,61906,-21011,-74905,-71614,-36411,-129714,-44788,-48238,10931,-60380,-101500,-93798,-20980,-73412,-80325,-78551,1322,81697,67057,17563,-87529,-61322,-61113,79004,-47057,-102607,-15789,-79547,70697,24228,-69967,11472,97075,-14818,28668,44555,123431,-56273,-93879,4604,-38861,15066,-57819,-81417,-70627,-47817,75058,-97631,76158,-94665,96857,-12186,-4620,-90270,-19061,-139364,-20354,-102734,-111818,-84919,-53369,-49517,52490,36421,-110778,-1382,-8704,-86404,75546,54549,48435,-53947,51801,51838,-11588,-16142,-66400,39680,26712,30362,116636,33990,-77449,-30006,2352,37515,97969,-1660,-93543,93847,40822,83019,-71597,39786,72558,111551,27997,38929,39891,-84727,-35682,100042,85483,111352,-79747,36788,-100916,104411,94409,55857,-41855,15105,70743,50204,51293,8571,31353,106996,92168,74097,3397,-84815,-55962,-85877,98546,34187,88254,95003,69371,89987,89743,-74732,-15230,24196,-55349,-39983,10455,-124033,26142,-7356,-23247,-76238,-122418,12266,-84904,-124345,-84202,22048,-31765,54962,-63898,-7829,-82568,-103703,6940,-91824,71889,41384,105848,-59465,58833,90094,113014,70976,-46160,-76408,-85088,31362,69101,-33696,-70659,-69108,105604,-27259,36151,115725,-9916,22875,-52834,76586,-85049,72304,-114388,61293,-114128,39875,121926
219510,-757262,-294152,-641825,-1068341,-403427,513073,341699,480193,262654,-118109,-890667,1005948,-175864,-264060,-93895,301027,754690,175902,32152,157070,290124,1678,1033824,-133250,-351569,-379815,-292440,-293576,-115999,202656,-95935,209316,83837,33177,-126163,57096,-112027,-109780,40742,-44531,-67236,-103318,93888,3965,96305,86038,-22305,-124111,-13615,551,-50039,-2724,-25432,-74558,-51005,-59316,-90514,41074,-117669,-118308,-44565,-86568,-47073,35880,93730,117046,-112244,20050,-95644,9616,-31077,41787,-54991,-6996,138163,38434,161010,106698,-101052,-34105,96830,84347,-21036,69511,68946,47976,48070,40059,80555,121276,43379,-61656,-67985,52431,122978,130368,91045,-70897,-19868,56739,79739,37146,-60307,55933,-95124,9962,-18487,-74738,-28390,18201,10182,87032,-46762,114443,-62838,114040,44994,-67766,-120711,-75685,118906,-73141,-110096,79153,-40536,11959,-104411,-120133,-15261,22983,69517,-72085,-80831,-13504,47962,-92834,84269,21809,68101,-32142,109059,-77646,101973,87254,33130,-31932,112531,-29531,-63736,-34725,-3862,51635,65544,100299,-42810,-69593,54766,52261,-63180,6835,-47616,8637,-25620,-29602,32200,15067,-15213,96599,-62178,146025,123065,99313,4459,38324,14338,-9450,32723,137801,-15720,64313,-40107,-45318,104766,35524,745,-1854,-102467,-81101,-108297,-949,-3867,59628,-54980,-106852,-73870,-96874,65029,-95485,82232,100394,-8698,48696,-50158,-89420,51891,33694,-112046,43637,3012,13026,-55599,-35751,63151,-49989,112506,94263,-68234,47530,93386,-45654,-116556,-82218,-17571,60686,98756,102303,47408,-69160,-119353,-45657,33681,-7833,-6245,2075,-83481,-94492,91216,-95151,80129,-77477,24122,85290,79560,-81338,-65614,-59516,46921,-112690,-8505,-91368,25779,11300,-91527,54410,8678,101731,44106,-80775,-70200,-15796,98367,109298,6442,107173,-66501,70272,31956,24150,-98995,-50056,27356,24382,48346,39557,87449,68542,41582,55437,31845,73928,-34810,89044,-108496,117487,-16446,119336,97606,-126011,-39483,20104,-48790,19785,-129195,-107307,-37096,90389,-113284,-27261,-10061,-85888,-123900,113325,-96496,36427,108036,-4139,102566,75262,113135,-29810,-29950,18665,101586,41204,-28268,-92060,-44648,117456,88754,82402,117996,9708,764,55676,112432,32732,110609,-47879,-101739,-62620,12296,-28888,-46152,27579,90779,-17855,80661,83872,-19880,-105503,133,97642,84460,102577,75542,100207,69001,59048,74962,-60356,-76358,-44114,55370,29019,72535,63492,-29588,102020,-68950
-53250,123538,170760,73313,-28013,41735,196307,-113331,-31858,-28854,-94027,116839,-25324,89002,29561,-110433,164620,-73718,94829,144825,-92339,139969,107845,8635,62230,105073,-44079,-91084,57641,164757,-31928,71356,140388,181054,84849,14614,16715,-60917,-37205,126809,-18410,35040,101117,-47478,38109,55047,-32658,-101594,-52908,-96626,98379,-21130,65163,101523,-66725,38562,58197,66363,137150,65541,-98093,101081,74113,18356,111604,81882,66336,-12157,67121,-44560,105573,-99373,-66259,-27011,116265,182039,107530,-142780,132716,57191,-14390,115882,100007,43829,38461,121418,-98632,-39401,-79424,15474,94008,99812,273,-65492,61778,111439,121486,116716,8189,-44286,149354,36905,169846,25537,116711,28110,111364,-11796,-51252,45057,-78393,-77857,-52037,-36265,66337,54770,112998,20194,46339,-27713,-135087,-48823,73923,11842,-106117,83356,-68467,-29756,64663,-124709,411,-99881,95993,73358,-14811,30347,-131512,-13541,-15974,-89409,88344,-99537,44730,-133956,93440,105006,172911,162055,8727,50332,48593,118636,10218,161594,157985,82666,-4910,16214,108444,83747,-32694,130324,-41876,-44924,-82640,110547,-90124,-22736,48657,105089,114459,7066,80665,-9800,85615,58213,-4999,61628,13031,47828,-14752,10088,-100427,114014,-38540,123884,-81129,84392,-97348,-51811,13520,80821,-35423,-21969,116618,-22564,21635,-100314,-85206,141880,137874,-52635,-51739,-88115,-90470,-100322,-4297,-40374,69964,99733,79329,3433,35341,120974,-31782,136002,-55006,95035,93691,-60619,2917,5215,-6928,137526,-12964,-18266,187,116877,132601,75508,-17685,93387,-80573,110521,-21226,-10421,-22250,80078,41903,105801,26557,7645,-38849,-90379,-65765,140753,-75993,-85542,127433,86514,-44044,-24796,-1002,-57783,127461,122487,-97399,23385,-66844,6858,21213,85295,-85118,-60756,-7610,-84348,-76029,-15866,55304,133724,113566,-54089,111994,-34350,125075,-37799,-50458,101565,-9369,4959,113872,2217,116391,5217,-78099,-98818,29918,-43422,-66140,-91374,-61961,-20550,15754,-71397,-28315,133103,68456,23717,74610,-20614,104730,113759,73632,8212,77133,117845,77122,43148,80795,-93176,35730,8020,83845,22005,67128,-45031,101179,4611,-82674,60634,80372,94224,-24682,110926,89467,94765,77334,-37045,36748,-89935,100612,126214,-59395,140421,-35391,105970,-100596,13047,-34478,6911,-90143,95601,3415,-2653,94848,17759,-12339,141358,51258,-61605,108384,20626,83032,-23283,-8127,114518,-36261,58619,136228,74479
-144425,-107004,-384703,-492666,-498638,-442978,108924,172097,-107402,-59732,125428,-206327,-598122,-421,26288,203588,398705,28890,51779,258605,-132322,-230430,-125585,15203,-144433,-138846,-38321,160051,-10484,-225311,272476,115276,133579,194270,258029,303189,107107,111198,92100,33617,-34669,31029,-109745,-88306,-81268,-29383,-34268,27870,-71100,-113406,42424,16071,74299,-115504,-44979,33262,-50371,-78509,-99026,-78931,-24589,-77811,-7462,-77579,6027,-69688,1308,54024,-55229,24756,120578,-107483,91147,-22796,-62009,-56296,-54835,122304,40247,112093,52800,117955,-10250,50853,23536,-28584,60259,2911,-48795,-16087,17509,108714,-43911,70806,-51734,98454,46962,-35089,-53467,-52823,26895,5908,109482,3652,67665,-56867,114965,125174,77495,-109674,16128,99806,103508,58571,33671,-657,-26696,91129,99310,68135,-53208,-20312,29162,38062,82239,-24886,77226,-12939,104777,35502,83599,-52505,-66880,-119394,-56975,111491,-74325,36158,92224,86440,-65718,99805,111855,118989,-41961,68922,-87805,-99149,15957,120308,-54479,144376,-81725,89433,-59143,-35287,-72330,74176,-16390,-21926,-9302,54628,73433,39468,80942,63268,21265,105582,27911,-80753,126990,73668,55742,-80716,-64623,-50058,-26822,-20795,89447,87137,-43432,-42015,-34464,17135,-59385,119035,-98274,-35622,7942,-43266,27879,84864,-81,100852,200,87442,-88193,118593,-75570,66096,44239,115600,117834,17376,120845,77011,-23283,701,-53042,-85415,-82610,-67831,10930,-68095,32959,-54487,21325,3138,44920,74232,-35188,-90856,59187,-65841,-10183,-32009,-76887,101374,72242,108494,-74017,109263,-9860,41876,116010,-24497,-29622,23069,111638,109193,116111,-5379,-64311,-4787,57703,-90827,40346,-14877,117296,79047,-13825,-10626,49268,-5119,-91164,107507,84169,-1647,84347,98640,-29405,120881,-43677,69027,-32530,19346,94039,52889,81442,-27119,107114,5645,-90429,119040,-113938,-81113,-29461,-87989,88233,-52589,109692,82339,-31602,38301,38534,-8239,-97771,-29945,-41667,65151,-67427,47400,-4486,120907,-13276,-78844,105072,-81955,-89575,-93651,-67765,-98548,-38040,21667,-41970,108673,-54205,108914,37596,-67674,-20397,36056,6999,64432,54104,-81463,18252,21587,46569,81058,-38059,87769,114233,78197,99988,99495,76981,-94426,64679,-64234,96743,-48238,72416,-82026,-115159,-87615,-36766,42735,-100136,126891,-80702,67366,-64957,92957,-35213,121245,9415,43267,111008,-96442,-76764,-91512,87471,15017,-68426,111628,-78729,93663,-36807,27719
-85807,-389066,132774,143550,-9493,226254,-53898,199708,790409,140582,-722392,-659521,260152,812537,536410,138332,209495,-39847,-100692,229516,-537761,-383244,305956,233729,-281923,-22368,1687,196806,-583764,-608359,-209761,187060,70514,135923,-181593,-75686,45343,20023,6525,25549,-129785,-39080,119842,78830,56265,665,92133,2325,72902,63983,-10659,-98843,-122652,3528,-51503,-22600,-9213,-27430,-7730,12436,13950,55767,34608,-14933,-82092,-12494,66799,-115472,90438,62120,-40201,-117962,-116528,164712,-105859,86017,70471,128393,-132686,86570,74589,58639,2556,56482,-45347,44972,22608,42370,-63234,36424,5138,36274,31439,12735,133793,109240,-83764,41085,49653,-72287,83522,-48852,6175,-116459,115612,-7855,-83873,-9414,45714,2984,-16313,-29497,75208,100923,-43994,-85562,55848,11601,34164,41958,116244,-105360,136315,-77861,41072,90888,-16421,-30898,73289,-27409,116340,61878,-95472,6427,-59804,-65727,60466,-37189,7514,77577,133155,-13110,-36100,27854,45376,61630,7516,-94919,102147,70833,14465,12636,17981,-69958,62923,-6343,92204,17124,16280,25850,32227,-82370,36665,118885,93328,66316,39944,-7008,-48397,76745,18102,113179,-26674,21002,101681,61900,92220,-59892,27348,-26629,32391,20670,14502,-75375,-138535,83292,-101050,2768,-94507,-140427,-22491,-4549,1829,35400,14569,-59981,-130351,-20744,41210,-83003,-99280,77733,-101468,-48627,-28263,60618,-35768,-71663,-13960,41422,-141173,33156,75352,-99853,41334,38607,-105050,-36579,-61459,35388,119542,-108892,-40421,-63013,-64595,125558,-109517,-23130,78130,35085,38507,116346,-83747,78151,59599,-27153,20056,3873,-39604,8433,-6540,91058,88307,84315,12282,49092,15458,54579,-119522,-122412,35531,-75221,4129,-22105,52321,51573,42387,37039,17624,73986,37602,-106239,17170,10227,63867,-121981,76018,-26847,-99513,76305,64281,74904,-143356,-13328,57856,58005,-3704,25827,-30790,-106878,-125609,59762,9308,26471,22019,-110059,-43046,71527,-20972,-38530,-63291,107697,96786,-56798,24256,-92320,18863,44342,32357,-15751,79391,-118081,-52391,107910,101949,15898,-109181,-19449,72615,36002,-90122,61179,68907,-42064,-90348,61349,-102243,-17057,-92770,-75072,5764,-104435,6316,-59909,-84939,-97794,-82392,-127061,38267,-108408,83195,95890,42564,-38748,49318,26920,82348,10192,-36328,-18919,11401,-80645,21698,-19565,-12518,77424,-34329,-112905,21632,41449,54471,-104015,-83018,33437,75685,20785,-49452,-107143,-1344,-42590
309670,117176,-451974,-271381,430268,492600,-664269,-106207,-43995,510042,666359,764433,93701,-11210,-92752,265673,-78193,251300,-751579,-446378,56075,-133273,-570175,-149089,-121383,-178328,-343416,-436948,81947,603462,1141437,429862,266695,-336560,-339729,-281866,49769,21381,-6902,55541,-66816,75348,87500,31693,51762,41347,-49579,115786,108045,-63796,-54530,87194,26029,44451,8174,-5922,-60631,-107903,-748,-116019,16664,-14960,52878,-57834,25678,114749,48539,20984,20825,75404,-82437,79917,1622,-137844,84801,-3729,-78203,2172,136929,-392,-61831,2415,66608,11315,-29090,-85741,52423,-54294,-96317,40464,-95689,-41570,117527,-22678,-51673,-60594,-117942,-91227,-40081,11365,-3553,123984,-73979,-173681,69845,-145210,17673,-103500,116111,-32760,29424,46864,101619,-90982,67808,-54656,69820,-44093,-67811,-9540,47611,-32472,37852,110339,52612,124116,45945,70481,46785,-32921,35899,50947,4086,-29829,86382,1361,10854,3816,-121712,68988,111054,110631,-87794,-16273,-110601,-112444,100530,-111435,-141506,47921,-30905,44502,-134379,-132030,94554,-52947,-69626,24801,71071,66052,-27561,-48913,3170,68517,27636,-65959,129651,26544,-60974,100361,-36892,-84920,57672,87227,82441,-15532,111022,-17225,-42543,-70157,85003,-122201,29436,-100273,-87106,55784,75984,91433,43449,-42910,80836,78110,15068,63134,-104035,86119,85496,25301,117223,43391,103311,62740,-82495,36583,-60465,73073,-76644,82844,39047,82059,110972,1879,-91324,60557,51792,45844,-109469,38305,-1017,-67190,89967,138119,-81613,-16225,-63379,10003,98712,-36189,36174,75420,9130,127799,15681,-8826,19822,49753,90766,-30432,116247,39209,16491,-111998,-88052,-32269,-102934,84789,123530,-71847,-102099,-27081,46394,-1164,-62146,87295,119366,-96574,-66081,88797,44573,-110842,70316,-86150,32418,-22218,-21206,33730,-102246,53102,-123630,90439,-10741,-25431,-35337,-32481,45864,-48607,-26925,38925,1256,31698,45535,11357,85377,-6703,22795,-64246,84508,-45412,32236,-47729,9218,21901,13497,77618,-22712,89024,-50542,-4821,-45677,53902,-91004,44039,28039,104207,2946,-93314,-26012,-50356,48101,-19681,-76709,-5609,-61274,47566,-77940,-109763,53833,-99265,37403,76702,-105403,-123975,23063,-113462,30207,-117703,44201,60720,-16631,-94440,49172,-112598,7543,53005,63525,-100374,-78825,-67209,-55940,-5307,-87096,42446,-54789,7799,-58285,43019,72622,105350,104848,-12077,-70639,4083,90696,-105980,72432,-92809,-91061,66431,-21447,78664
422590,260050,136411,155926,77453,-20023,-39405,-30843,-64456,356197,333127,-258822,-113246,1132511,339042,716205,629248,5902,-493835,277732,-39256,-366243,-209998,118236,-93838,315262,58324,-133557,-190594,-80005,742800,345219,241652,-175018,-273178,427185,-97592,47330,42422,-4357,-21973,8791,-41570,-53764,75838,-33905,-40315,58128,-87459,-30124,-20745,92204,-80108,36799,-59130,-110853,60889,98661,46326,107930,-62686,17859,90025,84920,88434,24739,27574,-81430,-117381,-50568,-82283,-7459,90697,53744,22718,-58769,2931,-23489,-59082,-49808,70566,-18178,108957,-6243,128388,50705,58741,762,87034,-86196,-106590,116001,-41567,29546,-43023,-32923,15812,-109,94415,11741,-69555,178165,72578,124797,-66749,-63598,-55609,-39930,71863,32395,-91658,49959,-5961,58521,53380,73082,74770,-35377,-77183,110766,-29690,-9182,-32659,87104,69690,43122,-22487,-115925,-50280,-43453,-39065,-39502,66720,-49323,30858,-1571,50742,-51087,-97956,-8426,-123303,37395,2538,61231,62132,47017,-81448,50965,-64552,-23530,109754,74323,90465,-101648,32826,47998,-21971,142472,-104546,-107400,129970,81474,146085,68418,23631,-23395,110453,10817,-91463,-38682,-77819,128733,74683,46522,16519,65887,-44776,-80206,-55785,90307,66014,74525,104076,21008,-120644,-100022,-23850,-47633,45897,-11266,41121,-88745,-45958,-121935,3813,111089,65243,-91364,-94939,99592,-48741,-57561,-76181,-75705,23288,-46817,-75795,-102364,18415,47370,101072,-25742,91484,10117,95872,35655,114542,6794,-75462,93345,-47736,-27426,105474,-36158,39338,126511,-44,9070,83262,6391,-69472,13127,7486,13870,-122508,71404,-94216,-9122,-105341,-78876,38287,-23688,27763,-55004,-103498,98040,109426,4471,-104460,87071,-4801,-101358,-48315,-56022,-61899,-39644,-56102,18582,-26932,70971,-74370,7800,-70368,110363,31621,49896,-44034,-36912,-10730,-48915,-54393,-49527,-41678,19447,54995,-82837,-96613,-41635,-88494,-40757,-89983,-32267,-34671,-101250,-102428,-18359,-7322,15133,101688,-117125,35303,115697,114063,60955,-70598,15688,-83211,60456,38296,116615,-121745,11846,84682,6969,-88709,113409,14630,-106715,58429,-63274,-112216,125076,253,62231,-19657,76955,-25410,15301,-72545,3903,22710,-5014,32784,-111269,-20550,14182,67382,-44004,-61844,-109213,76905,15613,74550,89789,51929,103735,81313,84075,15786,-103870,-7513,-32578,-47248,43483,-64494,82885,100075,43216,-17014,-24798,29740,-106631,-86017,-72373,-35436,-19141,100569,89766,-88774,83844
230319,159559,-10527,44804,-312008,-355325,-783181,448340,325352,69604,59754,-131857,-926315,554604,208620,202443,-195955,-546397,-921457,-101447,-476926,-301466,69298,795911,-257211,124580,-146102,9148,-162173,298726,332749,157946,354998,257460,-349718,335124,-24804,53110,6335,-20811,-50407,17253,-38314,102681,96638,68664,-40753,19723,4403,-85092,85878,87930,118412,-104145,22913,71167,81948,-65602,117718,-7865,78709,80752,-45411,45967,-103133,115752,-35319,70547,9628,54047,-101037,-6300,-85766,49585,51934,753,-19558,-43891,-6362,-114049,5067,75641,-129634,112918,-90642,23544,-27973,-8725,-121525,22,84791,51476,28319,141486,-110924,121255,-42859,-4739,85613,55320,-85577,-11285,10102,121943,-100724,72666,30568,126912,104852,-4307,92577,68878,72329,-60452,108231,-5880,-26776,-98065,-109836,-70053,68779,101055,9374,-90783,-67708,42458,120427,-49573,73317,30368,102589,69843,83095,80022,48503,-108496,139795,89527,114066,27049,-41131,-124429,-41179,106128,-22499,-90503,14313,10540,-99565,42602,-119593,-85422,-117387,38651,73728,-135454,13493,-16167,-89551,78568,31147,-104936,-56623,33521,59313,-99455,-64870,28225,-147638,8338,-9342,-12739,-158518,-118224,-62062,-110989,56117,18810,50765,23674,-39252,15384,34243,116936,101569,-34806,-74161,-56741,76544,-103894,62352,12798,-100682,10963,-28727,17907,49962,-73628,69670,-43261,-95836,-58132,-94071,42573,29546,-79644,-20825,72853,111483,-7256,-29415,-97941,13139,-84840,125364,42748,29336,82053,-91733,66334,-113228,-60762,88976,51742,-47402,-50494,30083,52454,27472,95156,-36009,-51787,82965,-85269,25714,-71562,-71430,-108661,104031,-52289,-107896,68522,-63856,8423,-38907,49556,62879,-68853,-45272,-127511,75506,94382,-54627,-9297,71609,95461,54802,-44691,-9612,45825,-92498,125999,37193,84470,97079,129091,-4146,-1461,117482,-30048,-34614,977,-117562,29717,-94151,114966,73589,110258,-8185,49927,113747,-117613,-26363,5596,123214,-40601,9569,-20004,128697,74063,-88907,13839,-20318,-32677,-927,6275,-109281,58104,-78221,38187,-1036,111318,7744,-98356,-19214,-45320,-74679,50910,-141863,-67026,76681,-42417,-99968,48989,49450,100037,-69844,-15899,12187,-93605,52119,-122965,-119759,-109732,71246,126108,-76594,-99388,81802,78627,-54945,51931,-3378,84424,90907,-440,-86622,-60996,-63770,8448,53351,84934,50097,-72044,69907,6693,-79501,83164,39687,-44038,98341,-52103,103322,-57143,92038,71514,123251,-45658,26519,-15357
482752,-363961,-38318,-125960,-16931,509329,-483717,-384194,140351,2862,115350,800409,278165,-384324,-368961,-595039,-268664,517133,-715223,-431158,-202083,-1303812,-885495,157524,-414974,-56585,27226,130621,-8782,1207,209010,306095,285593,-218408,-368612,-452154,32448,153306,115549,34697,11183,-32218,158700,-63029,77556,164545,-48322,62630,105746,60104,-49347,7899,39864,-19419,132217,91280,120106,141361,8134,-36920,24256,156757,-39761,52839,-4025,-6004,43577,158306,97960,-26522,-35819,-64843,199813,137625,70445,89689,-14097,123098,186588,-8200,61607,-36861,-36462,111127,183899,-50710,117602,124032,66475,-3812,75209,-58083,-121186,67086,-4583,28563,-13736,107014,132699,-21395,-33934,-57222,54180,165072,65719,-67198,-58557,-22876,39935,-47629,-15201,-44499,-62292,-34321,-124207,-61134,-120714,2453,-183561,-99975,-86959,-179457,-134128,-93394,45039,-71373,-68455,44222,-121338,-163520,-161572,-201080,-7645,-164199,-177699,20996,-148028,1232,-34200,-97914,-155269,-112049,-132029,-125132,-20901,3075,-10322,73124,75657,128797,9253,2541,95424,-39987,27304,95488,41729,63439,74366,130,32305,46965,-38276,74881,61000,-73803,-7122,-5435,100932,3300,43348,47247,104321,163385,-36511,-87328,74148,-24358,38323,68733,-4343,-41125,109639,138291,100959,73803,80753,-42550,-17416,34084,132833,143585,112247,-17625,150712,182914,97242,46960,167655,120214,-50111,179845,97483,114149,101043,-3941,76287,-28747,108992,95912,9169,116270,182521,31219,185452,123483,-52236,57468,175770,152128,-39111,-1205,61981,47153,162154,65382,-35338,153673,142121,-31281,-30382,127145,24203,81893,157835,105606,154227,-54644,-21751,-1771,-25654,-53890,-22252,86156,72752,73625,155297,-37602,146222,12335,174053,152948,-17951,-53447,6167,68334,5428,41195,45937,116876,126115,163158,56638,138946,62556,118176,6720,41049,-5099,17186,-47062,116087,136837,153672,113318,-43866,40652,-28005,10108,-23851,162021,-40840,-26339,90378,1668,11494,97614,96783,-13755,188992,-76138,139793,104544,88480,112820,100848,79006,73340,-67693,133689,15486,-40380,114916,144195,-35889,123225,-32888,16447,-20745,71068,87917,-32483,39556,-51356,88559,83115,44995,19765,-20478,161547,150140,95951,128886,-73559,154307,100957,16639,9180,172645,111620,151647,139377,107434,45638,137735,36432,105476,95128,28862,3071,24478,30554,-17458,99704,-30334,41145,102380,149098,1237,34887,-40506,100106,-44402,-26189,-13649,38128,80640,-4958,168183,22454
-335243,-441,388423,185199,-243064,-603164,-5723,43308,237114,-101541,284885,158765,75283,17428,-69746,-339864,155268,188691,445670,575251,384365,-948208,-732616,-87821,361029,-244960,154151,231831,223507,-4509,659912,418304,964883,734285,135561,75735,-17566,93509,-21130,74363,60741,-63338,-100692,-27442,-91918,-87135,47137,59695,47314,82758,46461,1413,-5821,9399,-93022,-82118,-21766,84909,-55361,36361,-38985,-111766,-118192,-4492,24947,42345,42457,41339,-29430,-17588,64051,110810,45613,48340,-18188,-31086,-5323,-64794,58720,71777,-9105,-44767,-111177,127816,14304,72091,-123624,47018,61139,-66598,-73144,-118169,84069,-67388,-88170,-92329,-46119,103906,28773,-151767,-65094,95324,-38488,-102200,-111197,80759,53890,42191,-34322,43359,-65609,60517,73077,123957,-34268,-39356,43510,85699,-79428,18255,15593,-18675,-102868,-63675,116029,111989,50485,-25095,-16547,-10271,8952,1192,-108162,-57324,-20203,71287,109041,-16618,122129,17508,-107933,102519,74132,67561,58280,-24947,23,-5534,98836,-95056,-100094,-67564,13464,17395,-80039,20376,59187,64831,99251,-5094,-81255,23965,-91453,-74077,-67067,-77480,11408,-79608,-112583,-94782,83662,75105,-82948,38547,-117723,66931,-8757,-141965,71470,-93528,-95895,-86224,-112897,-44543,68204,-76601,12103,50865,-58272,-108258,-19656,54401,-15696,76180,-51971,96640,-44616,62784,-53366,-94613,50890,-31939,110831,57915,97152,-54547,15296,-74319,54848,75845,58256,-104234,91065,107594,108701,-14906,-24210,-128279,73811,82761,5402,41900,86441,42027,-41159,-99391,53585,-67097,-79082,62059,-39309,-21467,-101087,33994,107100,99454,-226,91779,26987,82153,-89981,-22749,-127190,18288,-73133,108372,-113955,-87659,-57428,33767,-67581,-108862,-101641,-1644,-95378,113126,112316,105908,57671,98790,-58430,52091,38714,-84572,31607,-111217,-3397,96392,-47888,49991,-66760,30834,47132,33665,64421,-88079,-11056,49357,111574,-89488,73362,-22338,26556,7086,64452,61261,88973,-51153,-12284,-88526,-107180,-36313,57931,68094,-90963,-33190,-113936,17847,7582,-22136,104380,10100,74301,-45315,33540,85704,85810,14287,-94768,93938,-5898,-106580,48839,-98356,2968,-70701,44825,84172,-81089,-99102,65778,-111261,60604,59230,-69349,-19647,75546,27222,75001,-63169,70272,88732,-118648,48152,-80115,102102,60492,-44233,-76837,73104,-102796,62721,47054,51224,-97404,67097,-94059,-79701,108745,65768,-28583,55401,-102001,-28667,-2538,-76956,59096,-114664,-18544,27166
-102243,731116,167699,-316069,-286000,-405088,52505,234220,-182859,-260090,-251975,-249112,-449412,-706905,-282830,-243699,-196743,189640,-387206,-20188,55348,-56559,276075,559970,98029,364854,-109803,403693,708575,310976,1125798,631196,462918,573031,442437,-61784,-57302,72684,-93298,-104542,32134,66003,9611,-56606,49687,-69993,-22651,-110145,41771,-21345,43691,77856,-25161,60831,65046,118593,51143,-43962,55297,86540,62503,-121673,87863,74225,68657,-113707,2025,55876,-14511,59220,-78532,-108497,83678,90211,120772,15112,-52116,88989,85295,-49152,23924,-64836,-89250,-55708,53028,103698,59120,12940,-42917,19010,41845,104887,18405,95516,23419,-52010,-120656,-56582,10271,70886,16633,84734,64606,12767,93056,30513,-109499,-101890,81619,-99896,-69272,79479,-32881,-66706,61509,70350,9483,-67321,-29444,-131975,-109416,20574,-22247,-32791,69515,111561,126302,-116773,-5409,-41756,-1706,-64071,-117127,57140,-82472,-111230,54494,63716,-38999,70542,-100886,100920,29104,-54850,-96553,-33790,-23259,96809,65548,-15536,-80156,-56481,-78296,70221,-77046,100860,-52728,-13716,-101179,38405,-93452,-119089,86270,106880,-6125,-46341,-57974,-57820,80367,45910,-72260,-73287,113421,-102264,53046,-35600,-111634,-103816,-17519,77728,24429,94448,59146,-53934,-74910,-14462,-95014,111484,102591,41146,-77637,61701,90326,-55253,-43088,72619,-109319,75930,64825,77191,106638,-116628,-87706,91540,59267,-24723,76894,22196,95778,37349,-10992,22352,57349,-42763,-30455,110676,107688,-49792,-101554,45081,-75275,-57985,114424,-81922,-100625,-45634,128290,-10530,-49321,14685,-73828,-10058,122396,51691,119011,-77081,67195,-71865,-79891,108191,18115,98783,92359,96028,97106,-76034,-10790,-111174,-13886,-105786,-49767,121542,4829,93960,37744,87020,-104600,57152,61677,-76208,-45989,13401,78380,53938,87051,73414,69778,55737,-98452,103100,-105531,-113431,-124505,74616,-124781,-42423,-95674,57853,111635,-115134,44641,-70413,-102478,95254,22546,-48876,113176,-30023,-22262,69213,-117532,64981,-88281,-78445,-39040,60475,114054,123531,-105089,-52437,-15157,-35707,20393,94538,-73674,52045,112909,-30287,-24958,34700,32921,100246,11938,-58737,-118463,-11463,29526,-7969,15214,-1199,-27944,-35827,4984,903,-89139,96087,-14175,-12651,-53801,-4203,93634,-43787,24644,-32198,-68689,-100979,-75666,-46180,36788,-110288,34863,-27280,-10750,80247,-18347,-80520,-126163,-32055,-80175,64713,-94168,17798,-123780,46441,35154,97117,65000,-60136,-33500,99669
-17998,-3896,178143,94952,76651,-120226,-90870,-128613,-101244,-156681,-68547,-21804,-26752,-63529,-82242,-86361,-168958,-124195,-79145,161136,66220,-56534,28580,-151982,-21211,151894,50407,189413,71427,-78098,113133,34767,135548,-50614,90817,19160,-73695,-1256,-7201,60823,-14091,66956,51843,45707,-134454,-12717,43232,94561,-46958,71152,61,-107169,61343,-85249,7209,28728,-72403,70112,93174,-73336,-43189,-133109,-824,-49104,-4665,54366,-115725,-39473,89662,61706,-50547,94280,-131500,153871,-82018,-54123,72818,-85949,-173214,-70028,36015,147606,130206,43780,-163464,42190,-15159,47637,-27368,-37960,-162999,-76523,-36648,-20571,-115018,24959,-129809,42769,45841,-165937,-133799,-108716,53135,-44155,-6665,92507,10577,-166854,102741,-87382,96412,-35195,43292,30958,71548,-81975,7325,-44450,144321,-14554,-4223,55161,-97987,39704,42377,1228,85061,58995,14856,67444,46447,118679,-89539,76473,39680,61556,109172,-100502,11091,753,-85152,11338,114055,43460,-123743,42937,110241,-33745,-25372,68086,-68878,67300,-36583,80371,91096,-59835,46106,-1801,-70359,59497,-80990,-5089,29447,-5536,-112985,-43565,61854,-21825,-89944,-41241,-153784,-74308,-105085,-23163,46806,21940,-92842,-71599,1642,79365,66652,78667,-120115,25514,-102533,49159,-20097,-97463,56079,-18345,-398,-138034,-65655,69700,73025,-33649,-90938,-66086,-52183,38689,29665,53662,6700,-120485,55282,-96979,-139241,33956,-70886,28259,-42191,-40801,-12481,-129030,-42984,-129087,-25374,-50067,-29050,50142,-119612,-105897,102119,-42416,-67341,2510,-134373,-93183,96566,40116,-93011,72170,-7316,-148627,3467,20852,37796,86759,5325,-25479,-131105,39207,-58600,-109256,-71511,-78613,-63107,32769,90447,95681,49309,38808,-63940,90953,-25741,32004,73427,45356,-55660,41072,-88596,-101810,66072,-99798,17362,-81274,-25553,82320,81593,59673,65699,-104782,42546,-126690,-74147,91776,40294,-123626,-143081,-57367,-77885,-25552,23433,-83687,3075,7705,-121177,-70607,-141791,47591,13074,25281,-133686,-151130,-54495,-93160,-32569,-135435,-39392,39773,-11951,-142886,42554,-44634,-68147,-65825,-132938,-43211,5884,-135586,18613,5600,89109,73249,-102341,13745,92210,81916,56068,105303,22215,81048,-129956,-125238,-19393,51722,59040,-52383,-123392,-108344,7391,73997,-112692,-24729,-93186,30012,-7486,51879,1495,60628,-87783,-23700,26305,53200,-57225,99298,-81678,-63453,-55044,-99936,-142457,-11331,-90535,-76396,57605,-33655,-120664,-40648,-44314,-87594
86194,93779,-32520,-86925,114331,111340,100663,112461,153284,111649,69315,-30957,11457,204650,2760,102944,152513,-79669,124144,-137749,-159329,-94047,40781,49648,113886,49300,-30516,-142165,-26162,126475,-48995,-76311,-49233,78235,-98624,92023,128592,21108,-13326,-26929,52772,-55849,-70213,-75496,58220,-35650,72577,-65304,72862,2878,74527,-43778,80596,85710,-22920,34288,66094,-17599,41751,-5170,91400,51883,124984,-60267,-62233,-105211,84373,-31134,-65169,131452,-102919,19380,38054,75750,103360,-52134,-24308,-67806,50728,68184,-103940,-23162,-48921,-69130,-65572,55241,-86702,114142,75855,-8104,-79694,80639,151274,98318,185350,15091,3033,120338,76377,-14852,30165,105274,71803,78727,7179,-68363,-41489,190915,98072,71001,-46965,-97802,-125229,56711,-99863,-49945,-120769,43233,75675,-129570,40690,-120954,25322,32327,103549,-86821,40160,-43842,-11871,119890,70640,-38226,-130872,-10427,-52367,24550,93022,-69981,-116659,66248,62535,43270,-115431,10973,-47672,19677,141452,-40822,35116,-24469,-14296,12838,-93034,-59057,-17387,-70697,-55858,148219,127400,-59867,91338,136712,105404,81048,-52806,138324,124879,-74218,57672,66084,-19704,118152,107455,115568,-39245,95578,-78837,130345,3521,-2879,48522,48627,-7427,-41798,40137,30693,105566,89394,59367,96344,39197,74635,63611,-68307,95110,80570,116508,-12698,12366,68332,-18383,-101063,-95244,-39519,119773,-82766,-45010,-84678,-44179,-86641,-25414,26861,93170,-79616,-10575,35499,22362,4257,24976,-20814,90039,-15910,87088,35914,78435,129702,106195,121292,72474,140786,121721,-7158,93740,122686,-105990,86091,-82093,64117,-13010,137260,129880,105603,16963,124459,10650,99199,-50282,-41432,130769,35935,87124,78858,-49338,103534,-12467,75929,46042,-94400,6002,-78927,-19098,-15968,33453,48902,-126176,135802,-78790,71053,9959,-12368,-49450,58603,131242,-76221,-72230,115011,23681,75087,55529,-45037,-71814,10059,76269,-83601,-35647,121174,114078,90379,-104000,-89580,87832,-35020,-37932,-81110,108257,-68207,-17629,-12110,112630,-5451,-46256,-54638,-71592,-76035,85694,140260,92396,75651,-49390,70911,-51942,-29591,124202,-78393,123263,-62870,-2257,-39404,122923,-75766,44864,49225,-25645,-64042,-47766,115490,19097,-10304,-99927,-29915,-13049,-46734,88195,83993,28906,-94340,-108347,34668,32028,89307,18722,-28983,-15504,77330,72983,19358,-25753,-93665,-10558,66628,-38583,70483,-90219,-32569,48282,40631,23870,107306,129532,44614
283473,-10029,470017,114131,-458314,-44059,311469,-504095,-486456,-29813,296459,952862,289515,-84077,15347,129241,385085,289375,1035915,780883,256828,-559491,-496655,-560696,238934,-12549,-332049,-78488,70839,-447512,291446,36786,83011,463290,165793,34585,-31322,-92273,24845,-40748,96960,116493,-23823,26949,-71177,82878,54173,-59334,69613,100998,30789,-109350,14041,-85578,4939,5939,52914,-90479,76165,82583,109526,-112298,83501,68714,20234,-23725,73041,-568,51669,80880,-114486,-126763,64623,18088,-122402,76153,46344,-11164,-50368,-9839,-68285,12566,53145,-102612,-124762,-120922,47834,77546,76964,24621,10441,-73583,84503,-66317,38773,-13459,129835,-136869,5473,51507,44082,-29451,-103268,-102071,-61826,31489,-129656,83423,-107313,4764,75310,-2981,-33463,8754,-62534,-10307,-75790,-88353,9517,-88758,-94278,55188,-14766,-93474,-49108,-55192,-20827,-2656,-117731,46024,-74163,-39518,-36519,44559,63054,103149,98833,-80700,-56830,79186,75136,-84175,44606,23729,-134745,-94172,-5605,-8680,-78115,-149876,94286,73112,23613,55999,-107763,-61204,42529,-80539,93921,-3102,-15804,-141642,-146422,15104,-50972,-49912,84703,-13136,-102903,-30655,-97276,-56109,81397,-51445,-84603,13967,50547,-113498,1431,-120024,100296,94568,-7488,-93430,-108883,-41436,-97513,-62829,55653,111831,65539,-65486,83368,-52988,-91467,-71548,-116689,-82051,-30158,-6025,37672,-58208,-49899,-45885,65904,19463,-122831,-28639,-77702,-8646,108698,-122318,69551,35658,-68442,-106075,72425,93458,-44697,-95806,29328,-3020,51560,33833,-66506,55443,33204,5065,-46380,-8039,-92159,-108648,-88954,78602,-1553,99176,29847,-61108,18794,-11797,21397,-76943,-10762,70725,29961,10654,-46085,30826,65623,275,-101842,17292,-26215,54352,112915,75682,54332,-50699,-94267,58662,-69560,13459,-107979,-93715,-63695,14757,-89560,68852,25418,-48466,50548,-119715,-22085,54311,60367,-103472,-46091,35753,113702,-20744,-66120,103345,13675,-41262,13953,93187,-94825,-42693,100948,109173,-88203,42554,-104367,-38309,65417,-121409,-76107,-124404,-120276,-57056,84936,-106987,-20258,-56407,-57947,-14317,-27041,-60185,-107805,-70366,-57325,-150118,-90249,-13830,29391,-3272,-64713,21122,70329,-102028,-107184,33608,-54071,-17716,88721,114269,73374,114159,100741,-73141,57572,-58416,76018,-16486,11437,-121043,73391,-121572,77663,-65110,56714,107080,9238,-3891,62600,32580,66666,-41880,15088,20466,-124944,-44734,-95941,9785,77390,-25565,-28046,33071,-60750,15220
221553,-69535,-347704,-671241,-37492,326671,-150659,-163407,-318568,92991,364414,-141808,-151220,-658507,-274681,74113,-164109,-545728,-474371,-411963,1229463,855496,-336876,-585658,-148245,-9423,279854,442780,-206867,-61083,87055,652391,443155,244086,47992,311171,78107,53535,146244,-824,119314,-82183,-5487,-49999,18492,92863,103097,-79946,26345,-23079,114645,-73255,105754,-50442,84608,116033,45054,104094,-29446,86596,18747,116364,86713,-64772,94045,121883,89715,64932,23928,51004,51196,127255,-49076,-22018,-81391,-110175,-77441,-29246,129799,-119266,-86427,19981,-43185,-83305,40680,-34079,-69130,-28036,1100,-48456,105426,-42178,79660,62866,6913,-112223,7199,23486,71142,4099,24264,-113516,50933,6410,-107050,-76575,-12789,76476,100878,-122569,3347,115193,49959,-81502,-2706,-119913,-34126,-48114,107428,6745,-37727,-41980,-149650,23549,88796,-43127,-96499,-54925,-109998,46657,33831,-68013,-92786,-60638,58441,-96069,73747,-78935,40953,64283,87535,-33497,23855,-131238,72789,-119131,75330,101184,63528,45971,-76218,-69475,-81322,-33734,-164120,-8466,-50846,-33830,48364,46344,46890,41768,66729,-43391,-43720,-78268,-121574,43656,-50298,-167190,78905,-47081,-74675,-68501,53611,-52527,41423,-99215,-143074,-108807,-9705,99053,26229,42662,-26462,117368,117248,-87704,-49794,-85655,-19500,-59433,376,-38503,-57101,-56738,-33093,-12321,-50526,128212,16786,-55101,129461,-66335,-20162,6807,149983,-11856,-32754,20088,-27415,103214,86246,28606,-19090,-68907,98835,96480,-109438,-109488,70921,-52009,75996,-43619,-85097,55189,-128128,41034,-72520,74059,-40450,-67164,-40985,-25111,43506,-115521,-67527,-107232,-99448,35065,-64321,-99739,34205,-126621,-11687,-46096,-94689,-71962,41297,134696,20149,-53111,-40752,50701,-34793,-73426,118751,-5984,-86783,-66405,50557,39678,-22247,-11723,96743,124521,-63706,45012,-2471,105739,71228,-54334,-67714,84719,37511,122763,144878,81438,53863,11377,138871,158,89005,83036,5768,131536,-72084,86157,-73556,143947,125774,-42417,-78706,-90909,-50694,-114162,62436,-63491,-7178,-104796,17901,-40702,63774,30366,107458,-125975,6878,-6649,-114841,-55628,-21151,30808,-76314,74511,7005,-60161,72514,-88941,25546,129250,42793,140992,65841,5722,18427,100347,-56883,102574,75190,-64098,-45132,-37378,80041,-88940,27219,-58610,-20108,-32024,-45735,76167,26597,38817,108943,88922,109372,28845,90040,-21125,77810,50917,4634,-30553,-43359,-82142,-68133,-73077,55938,-87191,68508,15845
-719060,215835,424812,676786,394865,-244924,-137150,259945,-385932,189483,44594,84462,602234,381223,212097,275236,336327,-731813,1641537,-455373,-859,735148,-58646,-147024,217011,-402546,438291,229555,39485,674404,-427401,241489,389360,-105338,19567,593601,89104,-49557,-117029,57524,80895,-53478,95150,-135409,-55115,-74695,-112483,-4338,-73279,-115687,-58828,-67460,-85021,-122822,-125985,99102,95641,-67110,29775,-44273,-20190,-48477,34883,62815,-83768,-44783,61011,-95942,31030,65350,-54335,85461,-106868,-61434,-5429,4291,-48942,-47639,-38359,61397,-5382,126297,48327,-104586,75760,114490,100919,127318,-59298,-39296,121956,-85796,5479,72819,217,-109414,109083,48113,-85441,118440,92684,120741,53339,-4097,83862,57857,-8029,-82957,6291,102606,66409,38390,100196,98582,-44099,-37915,-80539,8314,122716,25388,-72206,46620,118471,75130,-10760,-88491,-13363,64446,57935,37406,82294,66493,-41345,-1875,-82462,17243,-61086,70316,26353,89957,53865,130118,-70987,-105252,-41609,87488,-7327,34790,57232,-76962,77843,-399,-13616,25383,69290,136577,35576,-66426,-27509,7456,21481,-54924,12801,33633,24414,74352,-87339,72682,-52931,82180,-88941,-93699,-23927,93017,-30358,73641,-17010,-80125,2491,16937,-45508,-77424,-77345,79791,87601,-89259,-85410,84799,32556,72453,12066,-23096,-20478,-23464,-132667,-101824,-10425,-25609,87919,86039,-22521,88334,12766,18272,-66773,-33237,83017,-70517,30673,-17849,-118896,-122812,8380,5499,69194,-48704,-17521,36517,-20768,4662,-95134,77423,55008,-119374,122427,-131340,26610,103091,11844,102939,-30653,-41131,7798,-70913,93798,-77581,-2088,-74259,-58221,-45658,-9852,-123651,45771,80372,-35893,296,49137,-38565,2111,39779,13290,83013,-113748,90265,-3449,45000,-46023,-123942,-143571,-104133,62135,27703,-106143,-27877,-71555,85858,-92469,-48869,58683,18725,67744,76674,54852,-25803,-129134,62044,29378,-12683,-86674,-71085,-46992,-107601,21291,-11688,-15869,-80406,63769,104630,7016,22027,-119604,-34594,-51394,69604,107916,-106679,21857,-80576,102780,82149,-22139,12028,51652,72590,31516,-95620,112124,-109655,30914,113799,-69517,87257,31103,-80142,58816,-34895,64045,59048,-26121,-121067,87243,42992,-64037,-119974,52849,-143411,-35086,-65184,57857,86889,-114509,-96730,20579,81689,-75803,-20163,5833,-118242,35337,-19751,88474,-44604,-125751,-13143,-109389,-67919,-33724,71873,15483,15862,-63327,10307,-48801,89616,-114735,80535,-46328,30766,38008,42881
-58464,168163,311941,779871,465219,166388,-13114,332453,335269,289890,-161542,-427797,452035,258378,176079,22408,-225978,-181959,-294520,-501673,-363923,-279543,362790,304115,103573,-135880,-384495,-180912,94883,453034,-127331,434320,899586,706990,471062,288635,-76971,-165238,-62563,-1608,-152448,-160645,-44071,-385,-168846,52684,-50103,-126163,40219,-40360,-14042,-71107,-25863,-126928,-4797,-115745,-36047,-13587,-20726,-99474,18484,-86825,-158342,-152900,-56110,46788,-89354,-100151,-58722,-113016,-86218,54033,-83478,-116952,-20107,-65434,102883,-91915,-132265,33731,-123277,26023,-63133,-53968,96383,-66204,-141263,-11664,94324,-8726,75599,-59788,30620,-135024,33133,61489,35785,-84054,-121356,-22715,-97140,-80033,-109237,-16389,25475,-76861,-156571,-13385,100666,-25041,52209,-8734,37252,-59021,95914,84743,168788,-48925,1660,125730,35477,-72015,-53806,147103,19719,27215,154324,-31174,-25521,110985,155997,45411,-92564,4334,-54176,11404,-64772,-25008,160349,-14491,106652,25238,110148,-45812,29082,-80331,83274,53510,64126,-59402,-155377,-52401,24568,50604,-103204,-15623,-84951,15396,-101749,-71768,-124713,-148673,-82508,4354,-104920,-147297,-127576,-64017,-134713,-29366,-44825,-84935,-102056,-129807,307,-107158,-23626,-94688,-147927,-122386,-165117,-54035,-88967,38532,-68370,16626,-122217,-13281,25483,2518,-155105,-3207,-6851,-86771,-78298,-85704,-6187,-61855,59630,20172,-135465,-35482,8987,-24231,-46933,-135000,-115048,-61470,-109212,-1594,-83598,-141318,15881,12617,18030,59283,-52023,-85084,-159650,-151197,-84409,59245,-56361,61161,-124526,42025,-69783,30739,-70356,-47012,-31785,-65788,-70315,30288,-36677,-160101,-43562,-59120,39788,-34403,-128703,23637,6160,-44261,-77246,-21143,-43089,-112209,-108996,3706,38077,-31746,-59282,-120870,66453,-21050,45885,-5089,-134012,-130466,-19259,-173454,-104573,27766,-124100,-47032,-154740,-173901,-55324,-9137,-71082,-27925,-160906,9449,-112567,-124588,-4311,27902,-167444,-113744,-7564,27290,-110760,-18639,-89444,3589,44150,-131015,19971,-110828,-66247,77868,-131720,63263,-89345,48234,-111453,-73355,-101846,77374,-136434,-17048,-76824,-58003,-106871,-83603,-31092,-128252,-36198,-163550,18740,4871,7435,-145997,-161757,-130513,-106605,80791,-154472,-110792,-157231,-35784,-71557,-43677,18047,57935,-61751,-106066,-126016,-30347,-164763,-87890,-127693,-140166,-117629,-109653,48670,20419,-173096,-99600,20836,-128953,-43729,-142682,32565,62732,-93333,-113854,40758,33169,-150227,-145826,-9025,23945,-88279,-44137,-33369,-159570,2633,48648
-556443,-51794,120759,179842,183524,-60623,18853,-116218,83287,-294777,-129922,543905,313015,552788,-25224,-112066,101631,321492,-262682,-309669,-750826,20969,614333,468002,286208,-54022,-283848,67454,822596,1317218,-82622,9381,225033,19403,237966,186474,38420,61920,-92146,-100494,51627,-29906,115638,-29023,75472,32831,38328,-46192,92665,-65094,50418,82392,22722,-24365,79970,38210,-14165,32488,33148,-107057,-60871,89828,-125219,-31525,22681,22724,12653,36525,-55359,35209,70814,90406,5265,-88295,25556,67847,-32614,80832,-1931,45502,-95716,-3578,2834,81273,22911,-57932,-90500,35721,-128323,77521,-26043,-135047,-42175,16664,32854,17017,-14161,-11681,-8522,-141827,-69134,65404,-25817,61093,-52938,-123375,42785,13417,-46386,-60642,-94617,62294,-70492,-88946,26308,84753,63828,-135205,-54707,75272,19949,17256,-61492,50798,-21345,48785,-82674,117291,24746,87010,-109317,135766,87820,-21282,59230,32640,8438,73847,-103986,32858,23172,86051,75451,121821,-90931,-147401,38198,-92591,-41247,-16370,25456,-20216,61162,74550,-113865,-63613,-30371,-144934,-31470,75797,-68232,-14896,51149,-48976,12973,-108093,12575,21276,-67266,-132843,-16823,-1809,80213,-95845,58545,105038,-133540,-10324,50075,120333,6224,-68407,-74981,75069,45434,114196,-76880,-44630,65168,99339,104623,-13283,51161,-57447,-44865,-80675,100542,83747,-59168,-75599,-64152,1372,42951,107957,17854,29489,20795,-54406,26250,-104685,12129,34208,-17661,-34621,35515,60270,-25520,64479,-74963,-133153,6992,23196,32972,-109301,69702,-45992,22528,80776,-84797,54964,-59351,-78643,-93255,31032,104711,-80206,-143,-12577,68525,-29162,44754,-63047,-23849,-84555,99065,-32143,-67021,6869,-39595,12666,-75995,24990,-122366,9346,-91081,-41003,-121102,32629,-9752,-63602,-54736,-48363,2297,-72460,97633,9521,-68211,-64653,-26489,-96085,-82061,-82659,-19912,36432,-46914,-44652,-15770,-9348,22018,-48942,-18749,-6853,37920,67333,-37857,-61818,-98133,-82395,-92527,-99355,-56590,79488,-108322,75219,46086,-111413,119975,-31827,89456,39244,130846,-103436,-11944,26057,-16466,88412,-85692,2134,-39711,77363,7268,112374,-4970,26279,-97062,72510,43305,110231,-20728,-58404,-103765,-51470,103067,2777,-50811,-50153,-66085,28701,29875,-51733,59636,-75609,-21537,82159,84797,16859,-93651,27179,-109743,57603,120593,-81437,-21684,4951,18538,37073,2867,-5629,54023,116343,-123499,82463,26944,-29423,77685,-58659,-107563,101483,-31757,70563
144839,-638901,39171,80662,-16238,283625,218803,-566070,336218,45873,-19835,495494,718312,92844,-219567,-675342,-260695,1059904,-781439,663829,377370,-459437,-362665,131928,-143994,-157270,-134865,309270,50076,-205512,-324989,-463724,-183834,471467,-226259,-363955,85367,42538,-6154,-36194,67776,122520,-97093,108142,61297,83375,98757,-102317,-42052,-60136,-89531,53135,-90572,-74854,-59712,-91028,66196,106494,-99216,7813,-56468,51510,125192,24190,70488,-24158,-42473,-110263,-71942,-7265,-42957,109779,121349,117128,-121916,-75258,-100822,49717,-4650,-75329,100514,-145720,90576,-4800,48396,83399,-43397,26189,90114,-58066,123693,-54328,-6304,-105450,-8526,51588,87689,77218,-71173,39523,-36597,20335,86729,125255,117279,75225,8724,17490,23393,81357,72009,100469,-34489,-120976,14560,17365,62668,35574,50771,66993,-8992,50444,80691,105891,-110747,-24421,-45708,-54322,-5391,-60293,44138,-86679,-81189,61610,-95787,-55430,22231,-76783,35533,61809,24653,-67514,22414,-51572,94585,90193,52119,-84839,-14542,3224,-89414,-25482,31062,-23393,29573,41041,-4241,43968,93066,22636,-14709,48664,-72755,-101698,-54652,-67908,89592,11138,131473,-14555,119784,-100449,65407,141069,139547,26112,-82887,89798,-3908,35407,33511,-47511,36270,100418,116542,-120103,30344,101784,27747,-53069,8766,717,-83444,31949,-23935,-79082,45307,84913,-17363,13397,-84202,-79311,89472,-8884,42629,61499,36672,48206,24662,72579,-113656,10993,116110,27589,105037,-12314,10669,-44745,-6851,18888,-75157,-88114,-22163,-85217,-52419,-97598,89799,104028,36827,61908,-27731,45520,95465,-42418,-34253,-53290,-46024,-10639,4532,64429,-77098,-102798,-78165,-67605,106439,-28052,37952,81318,75962,107358,24585,16512,93189,-79445,-74332,70911,-47126,52397,55838,-12166,7930,-99388,-91602,-121231,1096,108919,448,-44320,5023,38867,-84216,62759,-90537,113953,79379,-115190,-80731,79358,10030,10935,-52039,70739,-68576,10831,62604,-4854,-51596,21581,116484,110110,-59901,85775,87923,116609,52838,-58045,50721,-79160,126466,126205,113660,-37637,10580,70328,-22078,106705,-21886,33340,-8264,-79053,12787,-109041,12238,-108959,-71008,-95565,-97962,3242,80130,-15713,-113697,26146,-65220,26281,-74503,-36718,-59555,-64099,-96326,21584,61759,119904,-38954,58644,-97724,-82939,-109088,58018,-48407,-111076,-116558,-46610,95473,58114,81179,9898,119982,9922,-60663,-105957,-37255,67460,1255,-71274,-110138,-35299,39025,-21513,-112153,-77888
39408,-31069,69812,89706,58402,-79682,-113625,-99388,-93715,-112330,-87229,26919,-123355,-74862,-46055,-38955,-33912,-20825,14513,25332,-106577,-98889,21459,59690,-369,-26849,114072,-111047,-48119,87045,46726,50377,28066,-2639,-80966,59750,-27837,22492,-35073,-80382,145152,-66206,-31395,-57939,2602,25520,106954,-53282,151374,32784,-58590,138319,38250,41233,-23725,29669,94689,-78418,134165,-84727,8263,30827,-33923,115988,86076,94098,-53204,-74785,129968,-53286,64467,-69295,4453,-101411,-114505,8144,-87292,-588,-62264,63933,93188,49040,-8594,-68530,6890,-80964,74446,-25998,-124106,-84864,-107518,41924,86219,121866,62222,-65486,200,-88240,-68504,-39482,97568,-72987,112523,-37284,-6383,-63706,75479,72282,-132706,-43640,-57336,64008,-23106,-32527,37438,-18964,-23900,51716,-111899,-49104,-37771,-38840,88696,-93419,-136693,-71731,-34430,5802,53760,120330,-64305,-103799,-7760,-99553,41958,19649,41066,7085,23833,-101004,-26543,85680,65537,-75200,14536,119078,40744,17362,24469,-95847,-107055,-25067,-2743,46824,21391,85249,21908,-4041,-23549,68317,-30780,96228,94417,60141,-98799,13365,94348,4299,-18975,-135831,70032,-17628,70220,52643,-65937,-19042,-130107,34938,-34574,-23585,-34051,43205,44336,122739,95,92332,44756,-82788,-61177,80250,132438,-33293,29631,145287,-80683,-77612,36053,-19164,154665,53164,-86152,-82427,750,91089,-55145,84596,54835,108876,26216,-77590,-85736,-24293,68844,-17382,133339,36134,66030,-48543,110534,-71433,46327,35003,49580,87559,647,-73439,53946,167,-80110,-6344,79338,82095,-84462,28565,103781,-36137,58789,-60096,-97253,-42400,31598,45774,-101317,103337,-59694,89551,-104841,-34931,7841,56577,96024,84635,72741,-83679,46942,77566,-19296,-14628,77431,-36935,506,-85034,112102,70401,17752,-22666,129678,-83036,82369,23297,46456,-57306,115943,138637,115988,-52650,44617,-81442,-62767,119032,-12166,33878,-56713,-39699,40974,81019,5176,-18009,130635,-64439,2317,139078,106621,76246,-52278,-67571,49772,-65962,72054,-47917,15749,-87910,44015,7865,66458,103204,-28540,-45835,-115788,60481,86617,36422,-53703,-31631,-20704,-2869,-20988,-3756,102129,-18250,43093,-54782,-84549,-84325,108898,115968,-22868,-82347,128430,-80917,152534,16604,105365,71300,-83127,33839,118349,54315,60998,12060,50568,11194,-49765,-15598,110425,-58767,40389,111864,-84044,-67161,-11622,50892,27677,54993,144052,122987,77853,11445,131345,150369
432417,-90245,-526710,-717228,-116391,-90702,508824,-31491,-3824,-310328,-279221,-58477,129495,-12007,-3340,-124240,-237472,32791,1298884,-242724,-610552,-100315,188180,321927,238641,-375310,37468,64241,-203441,409857,-236245,473631,647114,601728,416411,133285,-91635,22327,-47001,48523,-136726,-112581,-75643,1590,50369,54074,-71317,-21811,-2716,-132607,83058,50942,-114602,36372,-131739,32608,-72278,-67172,1108,-62634,48956,-114903,-103206,25798,-52167,-119782,-82851,32911,84416,-39292,62474,-95684,-67205,118130,-52867,-29012,14275,88834,-42811,-14831,70086,54451,94179,44595,46348,-18966,-105566,75682,77726,-49904,-75287,88602,48557,98754,-119178,-42506,125301,-86107,79875,94526,65039,155511,8352,91730,-33773,-10835,84274,98232,23528,-107036,13445,-70312,22771,-15636,10415,-77541,134472,-52199,-3595,22759,53201,-49896,9787,-23765,-71562,59494,31232,-102478,-53541,30285,-19234,33486,-57568,20061,118779,-7564,-124667,82654,-78404,18102,111589,-19651,-7692,123802,52724,78396,103098,-37366,12841,42995,-15142,-29702,16173,-58757,-41962,68415,-106335,98404,113269,-114590,-52592,-97749,6991,-5168,42083,65944,-106968,64600,96561,-15777,28554,41302,-3741,39232,90453,60190,22628,-31563,-65244,102280,-24831,-17045,15910,-94536,-109293,45822,15150,83282,-133358,-127059,-115596,79756,7720,38070,74599,-136034,-56221,95096,38647,-87809,-83191,82516,65136,-88281,31157,-42075,-138576,-44977,-33491,86787,98456,-56620,-88218,-10694,82481,-92654,-45287,-55327,-76064,-50043,23002,108040,78239,-48507,82596,89720,-114112,-1976,-116270,-41945,-6564,-66448,-69460,-42645,-33966,111457,-88068,-103463,68571,-99790,32680,40839,17570,99964,-57746,-106435,-50214,104151,-83289,3932,-113971,8841,24109,-116134,-82882,93216,24154,48490,-95855,71849,48946,-41920,-3876,-23689,92271,62459,56392,52769,-134199,-135084,-25033,-113953,-88743,-69473,-125699,-70415,-126801,93666,7378,-118724,106944,45001,47578,-28355,42268,406,-18387,25078,-52023,-86655,-109809,51415,-47623,-65534,-41335,55633,-4231,-125300,-105071,64684,85462,-123428,-64193,100279,-4089,-117994,-107638,72821,-39496,-108782,-97812,-82218,-87734,-46687,91907,-1653,-98731,9003,-117772,55620,-3030,78455,-16995,14239,-35059,77675,-129339,1494,-98317,73359,74390,-12684,-72240,3554,77595,-115584,83711,24249,49998,-39553,69292,-22533,-29742,-120241,85296,-11765,-33536,89328,19781,-121741,6399,-62198,-52506,-136708,6840,-56114,-18015,61231,76790,-41537
-626572,181657,447717,107356,-135724,-270222,-37942,13195,-17070,-59511,-118807,-635250,941611,306542,-303749,-220854,125714,311023,-953874,-32429,586251,-354284,-472783,-520691,-702880,-69595,198237,394234,-383783,-647480,-140125,133443,403803,168136,-500539,-144440,-105529,-19455,92113,-1592,-28651,100596,60503,43352,11313,-43391,-68817,-2499,112725,-67414,-71195,32525,-18092,-41903,-97023,-68247,-1381,34747,-38253,3159,15727,5294,-2782,-97964,-85703,-61265,92067,77841,50019,-99668,-5034,14474,-6057,131348,36132,-2701,-19274,111656,-12575,66328,-50103,-76190,-33216,51298,-45027,66842,-50088,145521,-37168,-122183,25823,78110,98397,-88329,22879,96657,11941,126916,-14720,-57694,18482,38278,-122300,-66344,63028,27751,75976,-33464,93438,-50793,-44654,76099,56579,-51853,28808,-30934,-58211,-9858,-56301,90640,45105,5489,-52315,118155,-89289,-98928,55108,-7692,117519,53476,114801,-65627,-50070,52249,-14596,-82720,46150,85351,-114334,-64767,59455,15301,57931,81147,-66264,105977,22256,63913,-98969,65234,118917,-12947,107863,97300,-1280,17755,83442,85509,-76176,86057,-118447,-6477,127585,-8369,98448,125043,109835,-35274,-77720,-127708,-42003,-40867,43935,45326,100420,24558,123109,132169,-45818,-111548,113112,-116266,85735,76416,-33256,-14100,-55829,-47940,18268,103622,15736,41689,31139,77903,-28681,10959,111073,63518,7007,51387,-58873,-115294,107243,-77171,-107849,-19082,-51673,-25197,89764,97686,59018,-30415,-15264,-69708,-121106,-69774,-110042,117460,-76567,110709,16864,25100,29872,-105650,-96794,43149,6515,75861,5438,96089,5210,-20321,-89237,-88824,-67196,87846,-11969,10245,63863,22146,-56685,97499,-68121,-65604,-98302,27219,-65806,42144,90279,-105452,73395,26599,24906,10095,82230,45889,18007,549,33153,-57035,31325,62083,38842,-14643,67613,85836,-34832,74633,111434,-12055,-63614,-121647,-115255,5123,104477,118507,-81021,98490,-47613,-54951,-96839,59897,6413,107669,-63220,-116125,-82625,-86346,51836,64582,95744,88328,-90339,-58531,56169,-66630,-19441,119246,112181,-24468,-8328,-69467,51640,97230,-86423,50604,-60450,-1925,-118457,92490,34140,-60316,-97856,-16816,-75338,-97291,-18372,116184,-74821,101437,18523,-33318,-74206,-102490,110794,-55990,-34247,1406,53115,-67598,31819,52866,-29519,-9284,44554,-101368,-122599,-42992,48994,5902,109124,-46771,-38088,-33198,-19095,-80558,-67490,-51408,73340,13350,86456,9559,98389,85141,115838,-31712,-17170,51434,46787,30926
378622,769271,800468,326591,166931,-245433,-480099,-233427,-138424,89409,17295,-518485,-1235331,-409756,-515489,-464071,-202997,-400697,262062,74034,-52630,11904,36270,-43689,732080,223170,248566,173401,-249244,-150553,1017583,383984,201609,146374,-62726,497976,-14344,38125,-73257,18954,-93210,-63477,-126654,-54983,84482,32997,71611,-84932,-38515,-26341,-68852,-102479,-94985,-24310,8003,34225,-87862,-68384,6432,23451,53744,33997,-60836,62618,-45022,-136817,-101844,18478,1317,72830,-62564,-109281,97177,-12651,146351,89339,95574,9216,81529,36408,135952,120021,-49658,95992,-87859,8415,43372,-56451,-15187,-10109,101861,-13656,-17889,-56979,-36567,-42253,89457,121912,-53911,135574,-297,107384,21496,-46132,-66222,122491,-35896,166421,60213,145946,3203,36350,19467,118678,104295,-51578,147730,99245,-77699,24319,115104,-85229,53150,119672,285,-101883,-29082,2897,-41478,22530,-21962,-53086,79269,108873,103371,31838,-23007,-98481,-76296,72386,44194,88562,55864,156338,89381,34792,-128636,116035,68111,755,7945,-85322,1591,12770,-99360,-19346,-24650,-12805,5708,-8160,17650,35960,51622,6630,-19058,4181,-63542,115374,53951,52554,32289,73433,59633,130761,32757,-8843,42459,-21759,-53695,-98324,-54300,-143402,80568,-95976,24063,-42494,89708,-385,-102093,80425,19636,-11083,90368,-95367,-111736,43900,-74986,-63750,63698,-68221,26066,-124015,-146775,-46085,-93634,46933,-40417,-108836,-111781,63299,-139720,48852,-54624,-147770,88719,-83145,-9273,55937,-41947,51478,-104589,66075,-49413,-98201,-93182,-92909,49893,102259,43655,-48542,-10038,56276,70296,-38908,-79421,-92839,43447,85342,95158,59571,-11339,-57129,53964,34712,11950,-32129,-42609,42545,102239,93873,37706,82970,65441,-49609,39377,87025,-114736,-88353,6689,93196,-113790,78823,-135861,-44610,42985,44520,-142514,20231,-43175,-11340,22826,-141779,-112478,-21115,-46539,-32765,-131320,-43007,-95365,97786,-28808,-75886,-43913,-31868,-88252,55948,47010,-110027,-4934,21538,-68295,-47258,59208,87483,30197,12637,91667,92488,98543,69943,-15115,105531,-26441,-101895,-69058,-55047,-64579,-30345,-7513,40798,-63353,-101665,-13970,-38233,-79760,102922,9514,-71721,75421,-2040,-117407,-73749,48929,-13164,8938,28451,86123,-78477,-67707,87096,-102370,-101523,-67414,-60111,15252,55085,65340,-83541,-5643,83047,-43266,-5319,74449,80045,-30988,21852,32066,91154,-48607,68219,26732,71474,-60613,896,-141904,78072,-145884,-101542,11946,92779
